{"learner":{"attributes":{},"feature_names":[],"feature_types":[],"gradient_booster":{"model":{"gbtree_model_param":{"num_parallel_tree":"1","num_trees":"387"},"iteration_indptr":[0,3,6,9,12,15,18,21,24,27,30,33,36,39,42,45,48,51,54,57,60,63,66,69,72,75,78,81,84,87,90,93,96,99,102,105,108,111,114,117,120,123,126,129,132,135,138,141,144,147,150,153,156,159,162,165,168,171,174,177,180,183,186,189,192,195,198,201,204,207,210,213,216,219,222,225,228,231,234,237,240,243,246,249,252,255,258,261,264,267,270,273,276,279,282,285,288,291,294,297,300,303,306,309,312,315,318,321,324,327,330,333,336,339,342,345,348,351,354,357,360,363,366,369,372,375,378,381,384,387],"tree_info":[0,1,2,0,1,2,0,1,2,0,1,2,0,1,2,0,1,2,0,1,2,0,1,2,0,1,2,0,1,2,0,1,2,0,1,2,0,1,2,0,1,2,0,1,2,0,1,2,0,1,2,0,1,2,0,1,2,0,1,2,0,1,2,0,1,2,0,1,2,0,1,2,0,1,2,0,1,2,0,1,2,0,1,2,0,1,2,0,1,2,0,1,2,0,1,2,0,1,2,0,1,2,0,1,2,0,1,2,0,1,2,0,1,2,0,1,2,0,1,2,0,1,2,0,1,2,0,1,2,0,1,2,0,1,2,0,1,2,0,1,2,0,1,2,0,1,2,0,1,2,0,1,2,0,1,2,0,1,2,0,1,2,0,1,2,0,1,2,0,1,2,0,1,2,0,1,2,0,1,2,0,1,2,0,1,2,0,1,2,0,1,2,0,1,2,0,1,2,0,1,2,0,1,2,0,1,2,0,1,2,0,1,2,0,1,2,0,1,2,0,1,2,0,1,2,0,1,2,0,1,2,0,1,2,0,1,2,0,1,2,0,1,2,0,1,2,0,1,2,0,1,2,0,1,2,0,1,2,0,1,2,0,1,2,0,1,2,0,1,2,0,1,2,0,1,2,0,1,2,0,1,2,0,1,2,0,1,2,0,1,2,0,1,2,0,1,2,0,1,2,0,1,2,0,1,2,0,1,2,0,1,2,0,1,2,0,1,2,0,1,2,0,1,2,0,1,2,0,1,2,0,1,2,0,1,2,0,1,2,0,1,2,0,1,2,0,1,2,0,1,2,0,1,2,0,1,2,0,1,2,0,1,2,0,1,2,0,1,2,0,1,2,0,1,2,0,1,2,0,1,2,0,1,2,0,1,2],"trees":[{"base_weights":[-1.254493E-3,1.1840743E0,-5.559594E-1,1.3907095E0,6.4286065E-1,-1.2142614E-1,-6.6650987E-1,1.4606233E0,1.1957707E0,7.718384E-1,2.805268E-1,5.754934E-2,-2.861092E-1,-5.4367507E-1,-7.146111E-1,4.2368788E-1,1.4027421E0,1.2630826E0,5.970429E-1,9.972184E-1,5.9893465E-1,2.1941406E-1,1.1571841E0,-4.174758E-1,1.3630436E-1,-1.5780567E-1,-4.342741E-1,-3.4456936E-1,-6.1034685E-1,-6.0070413E-1,-7.320843E-1,1.4292958E0,9.719663E-1,1.2808752E0,2.1528858E-1,3.9161673E-1,8.855524E-1,1.023318E0,-3.307087E-1,1.7579614E-1,6.7618644E-1,3.99831E-1,-9.4007745E-2,1.1846002E0,-3.2511625E-8,5.0270265E-1,-4.4384608E-1,3.873812E-1,-1.3584673E-2,-4.3890384E-1,-9.497083E-2,-4.5406136E-1,2.4054459E-1,-3.796395E-1,5.688073E-1,-6.2168974E-1,-1.2299174E-1,6.159292E-1,-6.2005854E-1,-7.3524994E-1,-5.841625E-1,1.441073E0,1.2248996E0,1.0743551E0,5.727788E-1,1.3247812E0,1.0999863E0,9.1304344E-1,-1.8404953E-2,4.8168588E-1,4.030706E-2,9.525222E-1,-4.7191018E-1,6.8836E-1,1.077807E0,3.913043E-1,-4.7663558E-1,2.502064E-1,-2.064003E-1,7.0085424E-1,-4.020619E-1,5.892956E-1,1.501098E-1,-1.9715926E-1,5.567423E-1,1.2066199E0,-3.404192E-2,-1.2157826E-1,1.2157825E-1,6.213018E-1,-1.3616765E-1,-4.8819175E-1,5.7581533E-2,4.2793077E-1,-5.857386E-1,4.8194268E-1,-6.756211E-2,-3.9027882E-1,-2.0988247E-1,3.0135814E-2,-2.5320417E-1,-6.0981417E-1,-3.8678104E-1,-1.0843378E-1,4.4180518E-1,1.4855767E-2,-4.409403E-1,6.6703176E-1,-1.8789367E-1,-6.290674E-1,-1.7367174E-1,4.5205477E-1,-2.6708078E-1,-5.217392E-1,7.60396E-1,-6.349718E-1,6.307486E-2,-7.3661554E-1,-5.4040724E-1,-2.990143E-1,-6.476002E-1,3.339461E-1,4.1107002E-1,3.7236643E-1,2.801421E-1,3.6510205E-1,2.4168727E-1,2.6681498E-1,1.036687E-1,3.7954056E-1,1.8657033E-1,2.6454857E-1,3.4575695E-1,2.9346472E-1,-3.404192E-2,2.4876781E-1,-4.3240316E-2,1.9202173E-1,8.9090385E-2,3.2114998E-2,-1.7663257E-1,2.8243914E-1,4.386843E-2,-1.8789367E-1,1.2157825E-1,2.0973067E-1,-1.9380297E-1,3.0973306E-1,1.2777123E-1,2.530142E-1,-4.1514535E-2,-1.487268E-1,1.2157825E-1,4.7204185E-2,2.0607625E-1,1.870464E-1,3.2129967E-1,-1.434792E-1,1.1161281E-1,1.3253452E-1,2.4039496E-1,4.9768747E-3,1.0493125E-1,-2.738904E-2,-1.813229E-1,7.347173E-2,2.5706133E-1,3.4646717E-1,-7.2466286E-9,7.01895E-2,2.8368258E-1,-7.481122E-2,-1.6062364E-1,8.789157E-2,-1.9836454E-1,1.4316621E-1,1.4605663E-2,-1.7404445E-1,1.2157825E-1,1.6159135E-1,-5.37504E-2,-8.099386E-3,-1.9386056E-1,-1.1360927E-1,2.0757261E-1,1.6012061E-3,1.8460906E-1,-1.2581234E-1,-2.9395534E-2,-1.7457393E-1,1.3093032E-2,-1.1257626E-1,1.1431984E-1,1.5760143E-1,-1.1539632E-1,3.2039443E-1,7.400414E-2,1.5723744E-1,-1.781856E-2,-1.06870085E-1,-2.0716718E-1,2.3357223E-1,5.386377E-2,-1.6419959E-1,-1.9159105E-1,2.7766636E-2,-1.2046796E-1,1.9048722E-1,-6.141583E-2,-1.2364827E-1,-1.4749652E-3,-7.2466286E-9,-1.7916796E-1,2.3709022E-1,-1.5473595E-1,-1.6078378E-1,-1.9786519E-1,-4.9126707E-2,2.3509607E-1,-2.0933843E-1,-1.6926265E-1,-1.8429016E-1,-5.359244E-2,3.4736633E-2,-1.2696579E-1,-1.8966335E-1,-5.4034792E-2],"categories":[],"categories_nodes":[],"categories_segments":[],"categories_sizes":[],"default_left":[0,0,0,0,0,0,0,0,0,0,0,0,0,0,0,0,0,0,0,0,0,0,0,0,0,0,0,0,0,0,0,0,0,0,0,0,0,0,0,0,0,0,0,0,0,0,0,0,0,0,0,0,0,0,0,0,0,0,0,0,0,0,0,0,0,0,0,0,0,0,0,0,0,0,0,0,0,0,0,0,0,0,0,0,0,0,0,0,0,0,0,0,0,0,0,0,0,0,0,0,0,0,0,0,0,0,0,0,0,0,0,0,0,0,0,0,0,0,0,0,0,0,0,0,0,0,0,0,0,0,0,0,0,0,0,0,0,0,0,0,0,0,0,0,0,0,0,0,0,0,0,0,0,0,0,0,0,0,0,0,0,0,0,0,0,0,0,0,0,0,0,0,0,0,0,0,0,0,0,0,0,0,0,0,0,0,0,0,0,0,0,0,0,0,0,0,0,0,0,0,0,0,0,0,0,0,0,0,0,0,0,0,0,0,0,0,0,0,0,0,0,0,0,0,0,0,0],"id":0,"left_children":[1,3,5,7,9,11,13,15,17,19,21,23,25,27,29,-1,31,33,35,37,39,41,43,45,47,49,51,53,55,57,59,61,63,65,67,69,71,73,75,77,79,81,83,85,87,89,91,93,95,97,99,101,103,105,107,109,111,113,115,117,119,121,123,125,127,129,131,133,135,137,139,141,143,145,147,149,151,153,-1,155,157,159,161,163,165,167,-1,-1,-1,169,-1,171,173,175,177,179,181,183,-1,185,187,189,191,193,195,197,199,201,-1,203,205,207,209,211,213,215,217,219,221,223,225,-1,-1,-1,-1,-1,-1,-1,-1,-1,-1,-1,-1,-1,-1,-1,-1,-1,-1,-1,-1,-1,-1,-1,-1,-1,-1,-1,-1,-1,-1,-1,-1,-1,-1,-1,-1,-1,-1,-1,-1,-1,-1,-1,-1,-1,-1,-1,-1,-1,-1,-1,-1,-1,-1,-1,-1,-1,-1,-1,-1,-1,-1,-1,-1,-1,-1,-1,-1,-1,-1,-1,-1,-1,-1,-1,-1,-1,-1,-1,-1,-1,-1,-1,-1,-1,-1,-1,-1,-1,-1,-1,-1,-1,-1,-1,-1,-1,-1,-1,-1,-1,-1,-1,-1,-1,-1],"loss_changes":[5.031818E4,2.7274648E3,2.5042354E3,2.388711E2,3.148938E2,3.1168683E2,2.4516016E2,2.2642578E1,1.8728809E2,1.9316138E2,9.4662994E1,1.8965802E2,1.04624146E2,1.5508813E2,5.8993164E1,0E0,5.2652344E1,7.790283E1,2.7713013E1,7.5096924E1,9.193475E1,9.376043E1,3.6554718E0,1.7718468E1,1.6364061E2,5.2116455E1,3.42287E1,9.429471E1,4.8364258E1,9.40293E1,1.1691406E1,8.943359E0,1.0724426E1,3.128955E1,1.1630358E1,8.787655E0,1.8277786E1,3.787207E1,4.6467957E0,2.9497463E1,6.361145E1,4.9690445E1,4.081041E1,3.3781433E0,8.5714287E-1,2.6939259E0,1.5625519E1,6.4390045E1,7.2883286E1,7.6019363E0,4.781068E1,2.5781403E1,5.20632E0,6.841986E1,1.3623005E1,2.8195068E1,1.6738348E1,1.0714592E1,3.9927246E1,6.3427734E0,9.705109E0,7.1347656E0,3.8885193E0,9.292099E0,4.138191E0,2.8127441E1,1.5003723E1,2.3683348E0,6.6532245E0,7.0337906E0,2.8682144E0,6.2835693E0,1.9795709E0,2.1385376E1,1.5501953E1,2.1939182E0,1.762661E0,1.5990187E1,0E0,4.0970703E1,4.6450005E0,1.8447296E1,1.3256559E1,2.3246405E1,8.423624E0,1.9649048E0,0E0,0E0,0E0,2.411273E0,0E0,1.1138855E1,1.1267882E1,4.5068604E1,2.1069775E0,1.5864964E1,5.900618E1,5.630623E0,0E0,2.0507841E1,3.0306732E1,2.758789E0,1.3953857E1,5.706713E0,5.525114E0,1.6015461E1,4.521939E1,7.4106293E0,0E0,1.9211182E1,9.5909E0,6.094739E0,7.1143093E0,4.393592E-1,5.9779053E0,1.594104E1,1.5438403E1,4.196289E0,6.792198E0,6.4060097E0,4.156601E0,0E0,0E0,0E0,0E0,0E0,0E0,0E0,0E0,0E0,0E0,0E0,0E0,0E0,0E0,0E0,0E0,0E0,0E0,0E0,0E0,0E0,0E0,0E0,0E0,0E0,0E0,0E0,0E0,0E0,0E0,0E0,0E0,0E0,0E0,0E0,0E0,0E0,0E0,0E0,0E0,0E0,0E0,0E0,0E0,0E0,0E0,0E0,0E0,0E0,0E0,0E0,0E0,0E0,0E0,0E0,0E0,0E0,0E0,0E0,0E0,0E0,0E0,0E0,0E0,0E0,0E0,0E0,0E0,0E0,0E0,0E0,0E0,0E0,0E0,0E0,0E0,0E0,0E0,0E0,0E0,0E0,0E0,0E0,0E0,0E0,0E0,0E0,0E0,0E0,0E0,0E0,0E0,0E0,0E0,0E0,0E0,0E0,0E0,0E0,0E0,0E0,0E0,0E0,0E0,0E0,0E0],"parents":[2147483647,0,0,1,1,2,2,3,3,4,4,5,5,6,6,7,7,8,8,9,9,10,10,11,11,12,12,13,13,14,14,16,16,17,17,18,18,19,19,20,20,21,21,22,22,23,23,24,24,25,25,26,26,27,27,28,28,29,29,30,30,31,31,32,32,33,33,34,34,35,35,36,36,37,37,38,38,39,39,40,40,41,41,42,42,43,43,44,44,45,45,46,46,47,47,48,48,49,49,50,50,51,51,52,52,53,53,54,54,55,55,56,56,57,57,58,58,59,59,60,60,61,61,62,62,63,63,64,64,65,65,66,66,67,67,68,68,69,69,70,70,71,71,72,72,73,73,74,74,75,75,76,76,77,77,79,79,80,80,81,81,82,82,83,83,84,84,85,85,89,89,91,91,92,92,93,93,94,94,95,95,96,96,97,97,99,99,100,100,101,101,102,102,103,103,104,104,105,105,106,106,107,107,109,109,110,110,111,111,112,112,113,113,114,114,115,115,116,116,117,117,118,118,119,119,120,120],"right_children":[2,4,6,8,10,12,14,16,18,20,22,24,26,28,30,-1,32,34,36,38,40,42,44,46,48,50,52,54,56,58,60,62,64,66,68,70,72,74,76,78,80,82,84,86,88,90,92,94,96,98,100,102,104,106,108,110,112,114,116,118,120,122,124,126,128,130,132,134,136,138,140,142,144,146,148,150,152,154,-1,156,158,160,162,164,166,168,-1,-1,-1,170,-1,172,174,176,178,180,182,184,-1,186,188,190,192,194,196,198,200,202,-1,204,206,208,210,212,214,216,218,220,222,224,226,-1,-1,-1,-1,-1,-1,-1,-1,-1,-1,-1,-1,-1,-1,-1,-1,-1,-1,-1,-1,-1,-1,-1,-1,-1,-1,-1,-1,-1,-1,-1,-1,-1,-1,-1,-1,-1,-1,-1,-1,-1,-1,-1,-1,-1,-1,-1,-1,-1,-1,-1,-1,-1,-1,-1,-1,-1,-1,-1,-1,-1,-1,-1,-1,-1,-1,-1,-1,-1,-1,-1,-1,-1,-1,-1,-1,-1,-1,-1,-1,-1,-1,-1,-1,-1,-1,-1,-1,-1,-1,-1,-1,-1,-1,-1,-1,-1,-1,-1,-1,-1,-1,-1,-1,-1,-1],"split_conditions":[-7.9141304E-2,-3.213379E-1,2.9377466E-1,-5.016935E-1,4.1474983E-1,-1.5283324E-1,8.1140107E-1,-6.959066E-1,1.2157571E0,-2.1385671E-1,9.7808886E-1,-1.2332556E0,1.1279952E-1,-5.7115626E-1,-8.288637E-1,4.2368788E-1,1.9485815E0,2.5607445E-3,-3.7773642E-1,2.5607445E-3,-1.2332556E0,1.2478021E0,2.1140628E0,-2.269068E-1,6.0264558E-2,-1.2332556E0,9.897146E-1,9.9024576E-1,9.897146E-1,-1.5481912E0,9.9765277E-1,2.378482E0,3.88698E0,3.7649035E-1,-8.289541E-1,-3.5356078E-1,4.4413493E-3,-1.2332556E0,-1.1382971E0,-1.562943E0,2.5607445E-3,-1.8307664E-1,9.4746447E-1,2.6185862E-3,1.1531234E0,-1.562943E0,-2.2686219E-1,2.5607445E-3,-2.269052E-1,-1.562943E0,5.640783E-1,-8.8711977E-1,1.5128767E-1,-7.867535E-1,5.4910495E-3,9.15408E-1,-2.848462E-1,-1.0248051E0,9.947686E-1,9.954705E-1,1.2031133E0,-2.2691001E-1,3.0554047E-1,-5.952373E-1,-6.326486E-1,4.7765026E0,-3.810901E-1,-3.3190525E-1,-1.3987085E0,-1.6586877E-1,9.004116E-4,2.2611995E0,1.8785754E0,-1.562943E0,4.7765026E0,-3.5956106E-1,5.776808E-1,9.490706E-1,-2.064003E-1,9.45493E-1,-2.8930014E-1,-2.132185E-1,-2.3618054E-1,3.88698E0,-3.449638E-1,2.457776E-4,-3.404192E-2,-1.2157826E-1,1.2157825E-1,-3.2194532E-2,-1.3616765E-1,9.135888E-3,-1.562943E0,-1.12478405E-1,8.1260407E-1,4.4413493E-3,2.5607445E-3,2.4232255E-1,-2.0988247E-1,9.954705E-1,-3.7773642E-1,9.4116575E-1,9.698043E-1,-2.2690736E-1,4.5359716E-2,-1.74317E0,2.5607445E-3,-6.8943286E-1,-1.8789367E-1,5.157775E-1,-7.720415E-2,1.0586495E0,7.922837E-1,-1.562943E0,-1.13514535E-1,2.0397236E0,5.053093E-1,9.947686E-1,4.4796824E-1,-5.9532124E-1,9.897146E-1,3.339461E-1,4.1107002E-1,3.7236643E-1,2.801421E-1,3.6510205E-1,2.4168727E-1,2.6681498E-1,1.036687E-1,3.7954056E-1,1.8657033E-1,2.6454857E-1,3.4575695E-1,2.9346472E-1,-3.404192E-2,2.4876781E-1,-4.3240316E-2,1.9202173E-1,8.9090385E-2,3.2114998E-2,-1.7663257E-1,2.8243914E-1,4.386843E-2,-1.8789367E-1,1.2157825E-1,2.0973067E-1,-1.9380297E-1,3.0973306E-1,1.2777123E-1,2.530142E-1,-4.1514535E-2,-1.487268E-1,1.2157825E-1,4.7204185E-2,2.0607625E-1,1.870464E-1,3.2129967E-1,-1.434792E-1,1.1161281E-1,1.3253452E-1,2.4039496E-1,4.9768747E-3,1.0493125E-1,-2.738904E-2,-1.813229E-1,7.347173E-2,2.5706133E-1,3.4646717E-1,-7.2466286E-9,7.01895E-2,2.8368258E-1,-7.481122E-2,-1.6062364E-1,8.789157E-2,-1.9836454E-1,1.4316621E-1,1.4605663E-2,-1.7404445E-1,1.2157825E-1,1.6159135E-1,-5.37504E-2,-8.099386E-3,-1.9386056E-1,-1.1360927E-1,2.0757261E-1,1.6012061E-3,1.8460906E-1,-1.2581234E-1,-2.9395534E-2,-1.7457393E-1,1.3093032E-2,-1.1257626E-1,1.1431984E-1,1.5760143E-1,-1.1539632E-1,3.2039443E-1,7.400414E-2,1.5723744E-1,-1.781856E-2,-1.06870085E-1,-2.0716718E-1,2.3357223E-1,5.386377E-2,-1.6419959E-1,-1.9159105E-1,2.7766636E-2,-1.2046796E-1,1.9048722E-1,-6.141583E-2,-1.2364827E-1,-1.4749652E-3,-7.2466286E-9,-1.7916796E-1,2.3709022E-1,-1.5473595E-1,-1.6078378E-1,-1.9786519E-1,-4.9126707E-2,2.3509607E-1,-2.0933843E-1,-1.6926265E-1,-1.8429016E-1,-5.359244E-2,3.4736633E-2,-1.2696579E-1,-1.8966335E-1,-5.4034792E-2],"split_indices":[10,10,10,10,6,6,10,10,6,10,25,0,10,6,6,0,6,23,2,23,0,6,9,12,10,0,14,433,14,13,433,12,6,6,0,10,22,0,1,0,23,10,9,391,6,0,12,23,12,0,6,0,0,9,213,433,6,0,18,14,10,12,13,10,10,12,2,10,9,0,92,2,9,0,12,9,380,19,0,18,2,3,3,6,2,125,0,0,0,9,0,10,0,7,380,22,23,276,0,14,2,343,304,12,6,13,23,6,0,10,6,1,0,0,7,10,433,18,0,6,14,0,0,0,0,0,0,0,0,0,0,0,0,0,0,0,0,0,0,0,0,0,0,0,0,0,0,0,0,0,0,0,0,0,0,0,0,0,0,0,0,0,0,0,0,0,0,0,0,0,0,0,0,0,0,0,0,0,0,0,0,0,0,0,0,0,0,0,0,0,0,0,0,0,0,0,0,0,0,0,0,0,0,0,0,0,0,0,0,0,0,0,0,0,0,0,0,0,0,0,0,0,0,0,0,0,0],"split_type":[0,0,0,0,0,0,0,0,0,0,0,0,0,0,0,0,0,0,0,0,0,0,0,0,0,0,0,0,0,0,0,0,0,0,0,0,0,0,0,0,0,0,0,0,0,0,0,0,0,0,0,0,0,0,0,0,0,0,0,0,0,0,0,0,0,0,0,0,0,0,0,0,0,0,0,0,0,0,0,0,0,0,0,0,0,0,0,0,0,0,0,0,0,0,0,0,0,0,0,0,0,0,0,0,0,0,0,0,0,0,0,0,0,0,0,0,0,0,0,0,0,0,0,0,0,0,0,0,0,0,0,0,0,0,0,0,0,0,0,0,0,0,0,0,0,0,0,0,0,0,0,0,0,0,0,0,0,0,0,0,0,0,0,0,0,0,0,0,0,0,0,0,0,0,0,0,0,0,0,0,0,0,0,0,0,0,0,0,0,0,0,0,0,0,0,0,0,0,0,0,0,0,0,0,0,0,0,0,0,0,0,0,0,0,0,0,0,0,0,0,0,0,0,0,0,0,0],"sum_hessian":[7.6526664E4,2.4395555E4,5.213111E4,1.7653777E4,6.7417773E3,1.0573333E4,4.1557773E4,1.2988888E4,4.6648887E3,4.971111E3,1.7706665E3,5.067111E3,5.5062217E3,1.1697777E4,2.9859998E4,8.265333E3,4.723555E3,4.1924443E3,4.7244443E2,2.1559998E3,2.8151108E3,1.6564443E3,1.1422221E2,7.1999994E2,4.347111E3,2.9519998E3,2.5542222E3,2.9359998E3,8.761777E3,3.9759998E3,2.5883998E4,4.447111E3,2.7644443E2,4.122222E3,7.022222E1,2.773333E2,1.951111E2,2.1146665E3,4.1333332E1,4.3511108E2,2.3799998E3,1.0511111E3,6.053333E2,1.1155555E2,2.6666665E0,1.9555553E1,7.004444E2,1.6244443E3,2.7226665E3,5.3822217E2,2.4137776E3,2.4817776E3,7.244444E1,2.8279998E3,1.0799999E2,8.562222E3,1.9955554E2,6.1777775E1,3.914222E3,2.5337775E4,5.4622217E2,4.199111E3,2.4799998E2,2.1866666E2,5.7777775E1,3.3119998E3,8.1022217E2,1.6888887E1,5.333333E1,2.2044443E2,5.6888885E1,1.8622221E2,8.888888E0,2.9777777E2,1.8168888E3,6.666666E0,3.4666664E1,4.0266666E2,3.2444443E1,2.327111E3,5.2888885E1,5.9688885E2,4.542222E2,5.231111E2,8.222221E1,1.0977777E2,1.7777777E0,1.3333333E0,1.3333333E0,1.7777777E1,1.7777777E0,6.4355554E2,5.6888885E1,1.5599999E3,6.444444E1,2.6666666E2,2.4559998E3,4.653333E2,7.2888885E1,1.3484443E3,1.0653333E3,7.4622217E2,1.7355554E3,2.6666664E1,4.5777775E1,3.8044443E2,2.4475554E3,1.00444435E2,7.5555553E0,8.42311E3,1.391111E2,3.9555553E1,1.5999998E2,6.666666E0,5.5111107E1,3.8306665E3,8.355555E1,2.5158666E4,1.791111E2,1.00444435E2,4.4577774E2,1.2755555E2,4.0715554E3,1.7777777E2,7.022222E1,1.0933333E2,1.0933333E2,1.9555553E1,3.822222E1,3.2471108E3,6.4888885E1,3.3999997E2,4.702222E2,1.5111111E1,1.7777777E0,6.222222E0,4.7111107E1,1.00444435E2,1.1999999E2,5.1999996E1,4.8888884E0,1.7644443E2,9.777777E0,7.5555553E0,1.3333333E0,2.8755554E2,1.0222221E1,1.7764443E3,4.0444443E1,3.111111E0,3.5555553E0,3.3333332E1,1.3333333E0,3.4355554E2,5.9111107E1,2.1253333E3,2.0177777E2,4.7111107E1,5.7777777E0,4.0711108E2,1.8977777E2,2.8399997E2,1.7022221E2,4.2711108E2,9.599999E1,4.5333332E1,3.6888885E1,1.08444435E2,1.3333333E0,9.777777E0,7.9999995E0,1.671111E2,4.7644443E2,4.3111107E1,1.3777777E1,1.2955554E3,2.6444443E2,6.3111107E1,1.3333333E0,2.3599998E2,3.0666664E1,2.3106665E3,1.4533333E2,4.6177774E2,3.5555553E0,1.2982222E3,5.0222218E1,4.6799997E2,5.973333E2,7.3999994E2,6.222222E0,1.7142222E3,2.1333332E1,7.9999995E0,1.8666666E1,8.444444E0,3.7333332E1,4.7111107E1,3.333333E2,2.0048888E3,4.4266663E2,7.511111E1,2.5333332E1,4.0457776E3,4.377333E3,6.711111E1,7.199999E1,2.9777777E1,9.777777E0,9.6888885E1,6.3111107E1,1.3333333E0,5.333333E0,5.2444443E1,2.6666665E0,1.8368888E3,1.9937777E3,6.444444E1,1.911111E1,2.4919998E4,2.3866666E2,1.3599998E2,4.3111107E1,2.6222221E1,7.422222E1,4.2577774E2,1.9999998E1],"tree_param":{"num_deleted":"0","num_feature":"434","num_nodes":"227","size_leaf_vector":"1"}},{"base_weights":[-3.6572796E-4,-2.591489E-1,1.5834455E-1,-5.582486E-1,-1.7837325E-1,-4.594608E-2,2.1385887E-1,-6.7228645E-1,-4.906739E-1,-3.9750808E-1,-1.4255829E-1,-5.643193E-1,1.4870526E-2,2.4749763E-1,-2.2171481E-1,-5.73389E-1,-2.125969E-1,-4.9592707E-1,1.8411548E-1,-4.0439466E-1,3.6226413E-1,-1.5893242E-1,2.8166234E-1,-6.3793373E-1,-4.0913484E-1,-3.2733176E-2,2.7132022E-1,1.6393901E-1,3.5258973E-1,-7.2101936E-2,-4.254193E-1,-5.7779986E-1,6.486486E-1,-4.481451E-1,-5.627206E-1,-1.8330261E-1,4.2081445E-1,-4.5160943E-1,-3.2040527E-1,7.090909E-1,-1.926606E-1,-1.3258371E-1,-3.50555E-1,1.6387333E-1,6.0203505E-1,-2.1206942E-1,-5.5510867E-1,2.823529E-1,-4.2729977E-1,-1.0183998E-2,-4.5004252E-1,3.9022478E-1,-4.6620495E-3,1.4319408E-1,7.591041E-1,3.9644933E-1,4.0047E-2,9.043246E-2,-3.1942686E-1,-5.028586E-1,-1.0277083E-1,-5.813184E-1,1.5473594E-1,-7.2466286E-9,2.7233526E-1,-4.695984E-1,-1.575586E-1,-5.6641906E-1,3.934426E-1,2.774566E-1,2.2395992E-1,-4.5614713E-1,4.8387095E-1,-3.3069485E-1,4.468085E-1,8.657718E-1,-1.3616765E-1,-4.7368425E-1,9.836062E-2,-1.7502025E-1,-3.3026587E-2,-4.5429048E-1,5.088335E-2,1.2004321E-2,3.6263734E-1,1.9928183E-1,7.813268E-1,-6.3115853E-1,-4.363637E-1,7.35849E-1,-3.658537E-1,-5.5662656E-1,-3.355593E-1,-1.2337158E-1,3.654976E-2,-1.0933945E-1,-6.498877E-1,5.2711952E-2,4.4758537E-1,1.9002165E-1,-2.9137385E-1,2.2447693E-1,2.2748392E-2,-3.954155E-1,8.310038E-1,3.8257122E-1,1.006322E0,3.4815216E-1,-1.9336851E-1,-2.4992567E-1,3.1719893E-1,7.836731E-2,-4.3216202E-1,-5.135202E-1,3.135439E-1,-2.8226325E-1,5.700712E-1,-1.6629344E-1,3.7002068E-2,-1.3404602E-1,3.220181E-1,-5.1447183E-2,1.7020954E-1,-1.6613173E-1,-1.1967088E-1,-1.4673239E-1,2.698444E-1,1.9791797E-2,2.0874755E-1,-9.7362675E-2,-1.3729766E-1,2.3316376E-1,-1.4673239E-1,-7.9524696E-2,-1.3546091E-1,1.7020954E-1,-1.3616765E-1,3.6274168E-1,1.491527E-1,-1.7020956E-1,-7.2466286E-9,-1.3616765E-1,1.1347303E-1,-5.2295446E-2,8.514671E-2,-1.853077E-2,5.412067E-2,-1.3588974E-1,5.6267608E-2,-7.9964235E-2,3.4439653E-2,-1.619858E-2,6.0017463E-2,2.1770987E-1,8.3167344E-2,1.043568E-1,-1.921721E-1,2.3788846E-1,-1.7663257E-1,-1.8223153E-1,1.7020954E-1,-1.2826383E-1,2.431565E-1,-7.2466286E-9,2.698444E-1,-1.4673239E-1,-7.2466286E-9,-1.6134593E-1,6.8083815E-2,2.0948866E-1,-1.0607547E-1,2.9324481E-2,-5.201881E-2,-1.741418E-1,1.4061314E-2,-4.8944395E-2,1.0043419E-1,-1.8651523E-1,1.2157825E-1,-1.0919105E-1,4.6068102E-2,-9.712398E-3,1.4059617E-1,8.691909E-2,-1.7192887E-1,-9.380288E-2,1.4368337E-1,1.8398488E-2,8.0573045E-2,1.8307533E-2,-9.40839E-2,-1.607129E-1,-1.3616776E-2,4.4479836E-2,2.7064672E-1,5.1810406E-2,1.2052961E-1,-2.4596768E-2,3.0570307E-1,1.4335792E-1,-5.7187095E-2,2.7471604E-2,-1.24996126E-1,-8.135603E-2,1.3093041E-1,6.421854E-2,2.1652098E-1,-9.15926E-2,1.5665303E-1,-2.5964182E-2,-1.4727283E-1,-1.6091818E-1,-6.750343E-2,-1.5835825E-1,7.953705E-3,2.7092177E-1,-7.242961E-2],"categories":[],"categories_nodes":[],"categories_segments":[],"categories_sizes":[],"default_left":[0,0,0,0,0,0,0,0,0,0,0,0,0,0,0,0,0,0,0,0,0,0,0,0,0,0,0,0,0,0,0,0,0,0,0,0,0,0,0,0,0,0,0,0,0,0,0,0,0,0,0,0,0,0,0,0,0,0,0,0,0,0,0,0,0,0,0,0,0,0,0,0,0,0,0,0,0,0,0,0,0,0,0,0,0,0,0,0,0,0,0,0,0,0,0,0,0,0,0,0,0,0,0,0,0,0,0,0,0,0,0,0,0,0,0,0,0,0,0,0,0,0,0,0,0,0,0,0,0,0,0,0,0,0,0,0,0,0,0,0,0,0,0,0,0,0,0,0,0,0,0,0,0,0,0,0,0,0,0,0,0,0,0,0,0,0,0,0,0,0,0,0,0,0,0,0,0,0,0,0,0,0,0,0,0,0,0,0,0,0,0,0,0,0,0,0,0,0,0,0,0,0,0,0,0,0,0,0,0,0,0,0,0,0,0,0,0],"id":1,"left_children":[1,3,5,7,9,11,13,15,17,19,21,23,25,27,29,31,-1,33,35,37,39,41,43,45,47,49,51,53,55,57,59,61,63,65,67,-1,69,71,73,75,77,79,81,83,85,-1,87,89,91,93,95,97,99,101,103,105,107,109,111,113,115,117,-1,-1,-1,119,121,123,125,127,-1,129,131,133,135,137,-1,139,141,143,145,147,149,151,153,155,157,159,161,163,165,167,169,171,173,175,177,179,181,183,185,187,189,191,193,195,197,199,201,203,205,207,209,211,-1,213,215,-1,-1,-1,-1,-1,-1,-1,-1,-1,-1,-1,-1,-1,-1,-1,-1,-1,-1,-1,-1,-1,-1,-1,-1,-1,-1,-1,-1,-1,-1,-1,-1,-1,-1,-1,-1,-1,-1,-1,-1,-1,-1,-1,-1,-1,-1,-1,-1,-1,-1,-1,-1,-1,-1,-1,-1,-1,-1,-1,-1,-1,-1,-1,-1,-1,-1,-1,-1,-1,-1,-1,-1,-1,-1,-1,-1,-1,-1,-1,-1,-1,-1,-1,-1,-1,-1,-1,-1,-1,-1,-1,-1,-1,-1,-1,-1,-1,-1,-1,-1],"loss_changes":[3.1448481E3,7.031515E2,5.382777E2,4.7363037E1,1.7982727E2,3.1975256E2,5.468817E2,1.7115845E1,1.3880127E1,1.6990204E1,1.368989E2,1.1905365E1,1.10836754E2,3.0417578E2,8.152867E1,5.8302917E0,0E0,1.2067444E1,6.3204794E0,1.2508484E1,5.8035717E0,9.573486E1,2.7545334E1,6.1274414E0,4.4597206E0,7.205601E1,4.6647293E1,2.382052E2,2.103274E2,6.2100307E1,2.825708E1,4.3048706E0,8.302702E-1,1.3985199E1,5.901825E0,0E0,1.078721E0,8.880768E0,9.239403E0,3.831214E0,1.037085E0,7.045972E1,9.549289E1,1.6205576E1,1.4037643E1,0E0,3.46624E0,3.045494E0,3.8115463E0,3.844109E1,2.6657211E1,1.9209442E1,2.4001337E1,1.8261087E2,5.4275604E1,1.1350586E2,1.3594958E2,7.20556E1,2.7504154E1,1.6228699E1,2.6797411E1,3.5697021E0,0E0,0E0,0E0,1.0384186E1,2.9310353E0,4.195984E0,3.9348397E0,1.7786782E0,0E0,6.2181396E0,3.9221663E0,8.273422E0,2.5123398E0,1.6519518E0,0E0,3.7894738E-1,1.3744261E0,5.186856E1,3.6050148E1,2.9499695E1,1.1102346E1,4.2243905E0,6.3145943E0,9.396176E0,1.1425842E1,3.8433456E0,3.7543526E0,9.3327165E-1,2.5231284E-1,1.4730759E0,8.50309E0,2.8909584E1,4.357982E1,4.3460245E0,2.305664E0,7.043608E0,1.9662598E1,2.3912655E1,5.6182404E0,1.058407E2,1.11342804E2,2.277975E0,5.0629547E1,1.11216064E2,2.3378601E1,7.051162E1,7.722627E1,9.92572E0,2.2518639E1,2.6056322E1,1.4099213E1,1.3309937E1,0E0,1.4981976E1,1.510657E1,0E0,0E0,0E0,0E0,0E0,0E0,0E0,0E0,0E0,0E0,0E0,0E0,0E0,0E0,0E0,0E0,0E0,0E0,0E0,0E0,0E0,0E0,0E0,0E0,0E0,0E0,0E0,0E0,0E0,0E0,0E0,0E0,0E0,0E0,0E0,0E0,0E0,0E0,0E0,0E0,0E0,0E0,0E0,0E0,0E0,0E0,0E0,0E0,0E0,0E0,0E0,0E0,0E0,0E0,0E0,0E0,0E0,0E0,0E0,0E0,0E0,0E0,0E0,0E0,0E0,0E0,0E0,0E0,0E0,0E0,0E0,0E0,0E0,0E0,0E0,0E0,0E0,0E0,0E0,0E0,0E0,0E0,0E0,0E0,0E0,0E0,0E0,0E0,0E0,0E0,0E0,0E0,0E0,0E0,0E0,0E0,0E0,0E0,0E0,0E0],"parents":[2147483647,0,0,1,1,2,2,3,3,4,4,5,5,6,6,7,7,8,8,9,9,10,10,11,11,12,12,13,13,14,14,15,15,17,17,18,18,19,19,20,20,21,21,22,22,23,23,24,24,25,25,26,26,27,27,28,28,29,29,30,30,31,31,32,32,33,33,34,34,36,36,37,37,38,38,39,39,40,40,41,41,42,42,43,43,44,44,46,46,47,47,48,48,49,49,50,50,51,51,52,52,53,53,54,54,55,55,56,56,57,57,58,58,59,59,60,60,61,61,65,65,66,66,67,67,68,68,69,69,71,71,72,72,73,73,74,74,75,75,77,77,78,78,79,79,80,80,81,81,82,82,83,83,84,84,85,85,86,86,87,87,88,88,89,89,90,90,91,91,92,92,93,93,94,94,95,95,96,96,97,97,98,98,99,99,100,100,101,101,102,102,103,103,104,104,105,105,106,106,107,107,108,108,109,109,110,110,111,111,112,112,113,113,115,115,116,116],"right_children":[2,4,6,8,10,12,14,16,18,20,22,24,26,28,30,32,-1,34,36,38,40,42,44,46,48,50,52,54,56,58,60,62,64,66,68,-1,70,72,74,76,78,80,82,84,86,-1,88,90,92,94,96,98,100,102,104,106,108,110,112,114,116,118,-1,-1,-1,120,122,124,126,128,-1,130,132,134,136,138,-1,140,142,144,146,148,150,152,154,156,158,160,162,164,166,168,170,172,174,176,178,180,182,184,186,188,190,192,194,196,198,200,202,204,206,208,210,212,-1,214,216,-1,-1,-1,-1,-1,-1,-1,-1,-1,-1,-1,-1,-1,-1,-1,-1,-1,-1,-1,-1,-1,-1,-1,-1,-1,-1,-1,-1,-1,-1,-1,-1,-1,-1,-1,-1,-1,-1,-1,-1,-1,-1,-1,-1,-1,-1,-1,-1,-1,-1,-1,-1,-1,-1,-1,-1,-1,-1,-1,-1,-1,-1,-1,-1,-1,-1,-1,-1,-1,-1,-1,-1,-1,-1,-1,-1,-1,-1,-1,-1,-1,-1,-1,-1,-1,-1,-1,-1,-1,-1,-1,-1,-1,-1,-1,-1,-1,-1,-1,-1],"split_conditions":[-3.9257056E-1,-1.4556936E0,-5.023455E-1,-2.2691022E-1,-9.5283395E-1,-1.4556936E0,4.4413493E-3,3.8209194E-3,7.492781E-1,9.927188E-1,9.9674046E-1,2.4104723E-1,9.9559236E-1,-2.678693E-1,1.1331953E0,2.031652E-4,-2.125969E-1,2.378482E0,2.5607445E-3,-4.296606E-2,-3.1359062E-1,5.9462845E-1,1.0748936E0,-2.2689228E-1,-2.9420933E-1,2.2611995E0,7.361426E-1,9.9807584E-1,7.796268E-3,1.1334316E-1,-2.2690152E-1,2.9504618E-3,-5.023455E-1,4.134914E-1,6.9445525E-3,-1.8330261E-1,5.6558676E-2,9.8880094E-1,1.5490951E-2,1.3525215E0,-4.1244838E-1,4.2392874E-1,1.1331953E0,-4.962399E-1,-5.4894006E-1,-2.1206942E-1,-7.176156E-2,-6.602385E-2,3.5878778E-1,-2.706495E-1,2.9417728E-3,-6.456209E-1,7.0442927E-1,7.490745E-1,-5.2343774E-1,7.8511745E-1,-3.9266307E-2,9.963586E-1,1.7896032E-1,3.1888394E-3,1.6971612E0,4.212678E-1,1.5473594E-1,-7.2466286E-9,2.7233526E-1,2.840657E-2,3.2783673E0,9.9613124E-1,-7.176156E-2,8.7696564E-1,2.2395992E-1,-9.0915656E-1,5.883828E-1,1.7512121E0,1.4924781E0,-9.681329E-1,-1.3616765E-1,-1.2175914E-1,2.3320515E-1,9.9543506E-1,-2.678693E-1,1.3476322E0,-4.877517E-1,2.9417728E-3,-5.537218E-1,4.962591E-3,8.436551E-4,2.6185862E-3,2.840657E-2,-1.5394998E0,3.5573322E-1,9.031807E-3,4.0378186E-1,-2.2690591E-1,-2.2691031E-1,-2.678693E-1,9.62157E-4,-7.099542E-1,-1.2010329E0,3.9254418E-3,3.5895631E0,-2.2690664E-1,1.1767332E-2,7.085751E-1,-4.9982014E-1,-4.9982014E-1,1.6233093E-1,7.9035425E-1,7.490745E-1,3.0605626E0,1.6378522E0,9.8110604E-1,-2.3616754E-1,3.515336E-1,3.135439E-1,9.890016E-1,9.034781E-1,-1.6629344E-1,3.7002068E-2,-1.3404602E-1,3.220181E-1,-5.1447183E-2,1.7020954E-1,-1.6613173E-1,-1.1967088E-1,-1.4673239E-1,2.698444E-1,1.9791797E-2,2.0874755E-1,-9.7362675E-2,-1.3729766E-1,2.3316376E-1,-1.4673239E-1,-7.9524696E-2,-1.3546091E-1,1.7020954E-1,-1.3616765E-1,3.6274168E-1,1.491527E-1,-1.7020956E-1,-7.2466286E-9,-1.3616765E-1,1.1347303E-1,-5.2295446E-2,8.514671E-2,-1.853077E-2,5.412067E-2,-1.3588974E-1,5.6267608E-2,-7.9964235E-2,3.4439653E-2,-1.619858E-2,6.0017463E-2,2.1770987E-1,8.3167344E-2,1.043568E-1,-1.921721E-1,2.3788846E-1,-1.7663257E-1,-1.8223153E-1,1.7020954E-1,-1.2826383E-1,2.431565E-1,-7.2466286E-9,2.698444E-1,-1.4673239E-1,-7.2466286E-9,-1.6134593E-1,6.8083815E-2,2.0948866E-1,-1.0607547E-1,2.9324481E-2,-5.201881E-2,-1.741418E-1,1.4061314E-2,-4.8944395E-2,1.0043419E-1,-1.8651523E-1,1.2157825E-1,-1.0919105E-1,4.6068102E-2,-9.712398E-3,1.4059617E-1,8.691909E-2,-1.7192887E-1,-9.380288E-2,1.4368337E-1,1.8398488E-2,8.0573045E-2,1.8307533E-2,-9.40839E-2,-1.607129E-1,-1.3616776E-2,4.4479836E-2,2.7064672E-1,5.1810406E-2,1.2052961E-1,-2.4596768E-2,3.0570307E-1,1.4335792E-1,-5.7187095E-2,2.7471604E-2,-1.24996126E-1,-8.135603E-2,1.3093041E-1,6.421854E-2,2.1652098E-1,-9.15926E-2,1.5665303E-1,-2.5964182E-2,-1.4727283E-1,-1.6091818E-1,-6.750343E-2,-1.5835825E-1,7.953705E-3,2.7092177E-1,-7.242961E-2],"split_indices":[2,8,5,12,6,8,22,429,231,375,17,6,19,3,11,183,0,12,23,11,8,18,11,12,2,2,8,26,17,426,12,312,5,22,327,0,426,356,17,3,11,9,11,5,8,0,11,11,2,8,426,8,2,11,8,251,2,22,8,270,11,28,0,0,0,140,7,23,11,11,0,8,8,8,12,8,0,3,8,33,3,9,5,426,9,314,334,391,140,9,9,190,2,12,12,3,381,9,11,176,2,12,17,11,11,11,6,3,11,3,9,22,2,6,0,22,8,0,0,0,0,0,0,0,0,0,0,0,0,0,0,0,0,0,0,0,0,0,0,0,0,0,0,0,0,0,0,0,0,0,0,0,0,0,0,0,0,0,0,0,0,0,0,0,0,0,0,0,0,0,0,0,0,0,0,0,0,0,0,0,0,0,0,0,0,0,0,0,0,0,0,0,0,0,0,0,0,0,0,0,0,0,0,0,0,0,0,0,0,0,0,0,0,0,0,0,0],"split_type":[0,0,0,0,0,0,0,0,0,0,0,0,0,0,0,0,0,0,0,0,0,0,0,0,0,0,0,0,0,0,0,0,0,0,0,0,0,0,0,0,0,0,0,0,0,0,0,0,0,0,0,0,0,0,0,0,0,0,0,0,0,0,0,0,0,0,0,0,0,0,0,0,0,0,0,0,0,0,0,0,0,0,0,0,0,0,0,0,0,0,0,0,0,0,0,0,0,0,0,0,0,0,0,0,0,0,0,0,0,0,0,0,0,0,0,0,0,0,0,0,0,0,0,0,0,0,0,0,0,0,0,0,0,0,0,0,0,0,0,0,0,0,0,0,0,0,0,0,0,0,0,0,0,0,0,0,0,0,0,0,0,0,0,0,0,0,0,0,0,0,0,0,0,0,0,0,0,0,0,0,0,0,0,0,0,0,0,0,0,0,0,0,0,0,0,0,0,0,0,0,0,0,0,0,0,0,0,0,0,0,0,0,0,0,0,0,0],"sum_hessian":[7.656799E4,2.910711E4,4.7460887E4,6.1879995E3,2.291911E4,1.0141333E4,3.7319555E4,2.299111E3,3.8888887E3,3.218222E3,1.9700889E4,1.0639999E3,9.077333E3,3.464444E4,2.6751108E3,1.011111E3,1.2879999E3,3.8591108E3,2.9777777E1,3.1897776E3,2.8444443E1,1.8969332E4,7.3155554E2,7.1955554E2,3.4444443E2,7.6568887E3,1.4204443E3,1.9300889E4,1.5343555E4,1.543111E3,1.1319999E3,1.00799994E3,3.111111E0,2.2542222E3,1.6048888E3,6.222222E0,2.3555553E1,2.039111E3,1.1506666E3,1.7333332E1,1.1111111E1,1.6677777E4,2.2915554E3,5.3599994E2,1.9555554E2,3.062222E2,4.133333E2,8.444444E0,3.3599997E2,7.265333E3,3.9155554E2,9.924444E2,4.2799997E2,1.8651998E4,6.4888885E2,1.345511E4,1.8884443E3,9.315555E2,6.1155554E2,9.124444E2,2.1955554E2,1.00533325E3,2.6666665E0,1.3333333E0,1.7777777E0,2.0986665E3,1.5555554E2,1.599111E3,5.7777777E0,1.8222221E1,5.333333E0,2.0297777E3,9.333333E0,1.1359999E3,1.4666666E1,1.5555554E1,1.7777777E0,5.333333E0,5.7777777E0,1.1692889E4,4.9848887E3,1.8208888E3,4.7066663E2,3.0444443E2,2.3155554E2,6.0888885E1,1.3466666E2,2.4933331E2,1.6399998E2,4.8888884E0,3.5555553E0,1.3733333E2,1.9866666E2,2.1226665E3,5.1426665E3,1.4533333E2,2.4622221E2,1.4444444E2,8.4799994E2,2.551111E2,1.7288889E2,1.1135999E4,7.5159995E3,3.7777775E1,6.111111E2,1.3157333E4,2.9777777E2,8.137777E2,1.0746666E3,3.7244443E2,5.591111E2,1.351111E2,4.7644443E2,9.071111E2,5.333333E0,1.7377777E2,4.5777775E1,9.986666E2,6.666666E0,2.0955554E3,3.111111E0,1.5155554E2,3.9999998E0,1.4088888E3,1.9022221E2,2.222222E0,3.5555553E0,1.3333332E1,4.8888884E0,4.0399997E2,1.6257777E3,7.1111107E0,2.222222E0,8.4799994E2,2.8799997E2,1.2888888E1,1.7777777E0,5.7777777E0,9.777777E0,3.9999998E0,1.3333333E0,1.7777777E0,3.9999998E0,1.1468443E4,2.2444443E2,4.3568887E3,6.2799994E2,1.7546665E3,6.622222E1,8.177777E1,3.8888885E2,2.2666666E2,7.777777E1,3.2444443E1,1.991111E2,5.1555553E1,9.333333E0,1.2977777E2,4.8888884E0,2.4755554E2,1.7777777E0,1.6266666E2,1.3333333E0,1.3333333E0,3.5555553E0,2.222222E0,1.3333333E0,1.3555554E2,1.7777777E0,6.222222E0,1.9244443E2,4.4399997E2,1.6786666E3,9.999999E1,5.0426665E3,1.2844444E2,1.6888887E1,2.4488887E2,1.3333333E0,2.8444443E1,1.1599999E2,7.6888885E1,7.711111E2,2.231111E2,3.1999998E1,1.6533333E2,7.5555553E0,3.026222E3,8.1097773E3,6.7239995E3,7.9199994E2,2.4888887E1,1.2888888E1,9.4666664E1,5.164444E2,2.2986665E3,1.0858666E4,1.8222221E1,2.7955554E2,6.3288885E2,1.8088889E2,4.9466663E2,5.7999994E2,3.5466666E2,1.7777777E1,4.6577774E2,9.333333E1,7.333333E1,6.1777775E1,9.733333E1,3.7911108E2,7.5822217E2,1.4888889E2,9.155555E1,8.222221E1,3.1111109E1,1.4666666E1],"tree_param":{"num_deleted":"0","num_feature":"434","num_nodes":"217","size_leaf_vector":"1"}},{"base_weights":[-3.053565E-5,-1.7142577E-1,3.2533357E-1,-2.472306E-1,5.1603615E-1,3.7296128E-1,-6.7134035E-1,-2.7683315E-1,7.350492E-1,1.1721424E0,2.2244465E-1,2.9816967E-1,9.186697E-1,-7.0196563E-1,8.5714287E-1,-1.323025E-1,-4.2300498E-1,1.2972513E0,4.97192E-1,1.3188723E0,1.0453633E0,-6.203761E-2,5.190291E-1,2.3972282E-1,8.1595725E-1,1.2839348E0,7.2705996E-1,-7.085499E-1,6.315789E-1,1.1694915E0,-4.2857146E-1,-1.8103467E-1,6.554469E-1,-4.3195862E-1,1.332999E0,1.3153515E0,-1.13207586E-1,3.2998687E-1,1.2578073E0,1.336972E0,-4.1095895E-1,1.0559968E0,-1.7663257E-1,5.1578945E-1,-1.7379503E-1,7.3049307E-1,2.4906336E-1,2.6553097E-1,-6.8746144E-1,4.846279E-1,1.0917249E0,1.2882749E0,-1.4673239E-1,2.4794742E-1,9.370041E-1,-7.140397E-1,-2.6896557E-1,3.321162E-1,-1.3616765E-1,-7.2466286E-9,1.2545455E0,-1.6100904E-1,-7.2466286E-9,-2.2513667E-1,3.251853E-1,1.14633E0,3.7085548E-1,-3.7448013E-1,-5.980379E-1,1.3492385E0,-7.2466286E-9,1.3248775E0,-1.3616765E-1,2.7272725E-1,-1.4673239E-1,-5.194347E-1,4.490303E-1,1.3100346E0,-3.8872596E-8,1.348347E0,1.3043475E-1,1.2157825E-1,-1.8137085E-1,1.0657735E0,-1.7368324E-1,1.3206421E-1,1.2329227E0,-7.19433E-1,-9.383915E-2,9.939638E-1,4.3664762E-1,3.1902143E-1,-3.789005E-1,8.2947505E-1,2.3411025E-1,-7.2216403E-1,1.0824742E0,1.0562967E0,1.9785048E-1,1.1552548E0,5.688376E-1,1.2962246E0,2.823529E-1,-9.964418E-2,5.440729E-1,6.682304E-1,1.1359508E0,-7.211398E-1,-3.918368E-1,5.660377E-1,-1.9380297E-1,1.2941177E0,1.2157825E-1,-4.2431783E-2,-1.5831456E-1,2.8932866E-1,1.229352E-2,3.3584607E-1,8.1052154E-2,1.8974628E-2,1.8950456E-1,-1.1595468E-1,-1.0557814E-2,-1.8841855E-1,-1.1900006E-1,3.87476E-1,-7.2466286E-9,3.7851763E-1,-5.869296E-2,2.431565E-1,-1.2157826E-1,-1.5501595E-1,1.17385894E-1,1.9292666E-1,3.488177E-2,-5.6736525E-2,3.829413E-1,2.431565E-1,-8.9583986E-2,3.8364562E-1,-1.2157826E-1,-1.7020956E-1,3.094719E-1,3.048633E-1,-1.7020956E-1,1.1390684E-2,3.72773E-1,3.747074E-1,2.3316367E-2,-2.0692754E-1,-9.766123E-2,-3.8321115E-2,3.1066525E-1,2.9642576E-1,-1.8107401E-1,2.1031445E-1,-2.0143155E-2,7.83724E-2,3.7785107E-1,-1.4433771E-1,3.135439E-1,2.9330266E-1,9.41746E-2,2.5777947E-2,1.0008281E-1,-1.6486268E-1,-2.0987791E-1,3.504314E-1,-7.2466286E-9,3.0504507E-1,-1.6605811E-1,-7.9282485E-2,1.2425421E-1,3.3156002E-1,-8.77369E-2,1.8836524E-1,-1.6670008E-1,3.689434E-1,-7.736799E-2,2.0757261E-1,-3.211502E-2,-9.325149E-2,9.509997E-2,1.8022929E-1,-1.1073114E-1,2.1122928E-1,5.6211863E-2,3.329916E-1,9.596383E-2,-2.0528965E-1,-4.4791996E-2,-1.8693537E-1,6.304057E-2,2.0757261E-1,-7.2466286E-9,3.9488614E-1,1.8401031E-1],"categories":[],"categories_nodes":[],"categories_segments":[],"categories_sizes":[],"default_left":[0,0,0,0,0,0,0,0,0,0,0,0,0,0,0,0,0,0,0,0,0,0,0,0,0,0,0,0,0,0,0,0,0,0,0,0,0,0,0,0,0,0,0,0,0,0,0,0,0,0,0,0,0,0,0,0,0,0,0,0,0,0,0,0,0,0,0,0,0,0,0,0,0,0,0,0,0,0,0,0,0,0,0,0,0,0,0,0,0,0,0,0,0,0,0,0,0,0,0,0,0,0,0,0,0,0,0,0,0,0,0,0,0,0,0,0,0,0,0,0,0,0,0,0,0,0,0,0,0,0,0,0,0,0,0,0,0,0,0,0,0,0,0,0,0,0,0,0,0,0,0,0,0,0,0,0,0,0,0,0,0,0,0,0,0,0,0,0,0,0,0,0,0,0,0,0,0,0,0,0,0,0,0,0,0,0,0,0,0,0,0,0,0,0,0,0,0],"id":2,"left_children":[1,3,5,7,9,11,13,15,17,19,21,23,25,27,29,31,33,35,37,39,41,43,45,47,49,51,53,55,57,59,61,63,65,67,69,71,73,75,77,79,81,83,-1,85,87,89,91,93,95,97,99,101,-1,103,105,107,109,-1,-1,-1,111,-1,-1,113,115,117,119,121,123,125,-1,127,-1,129,-1,131,133,135,137,139,141,-1,-1,143,-1,145,147,149,151,153,155,157,159,161,163,165,167,169,171,173,175,177,179,181,183,185,187,189,191,193,-1,195,-1,-1,-1,-1,-1,-1,-1,-1,-1,-1,-1,-1,-1,-1,-1,-1,-1,-1,-1,-1,-1,-1,-1,-1,-1,-1,-1,-1,-1,-1,-1,-1,-1,-1,-1,-1,-1,-1,-1,-1,-1,-1,-1,-1,-1,-1,-1,-1,-1,-1,-1,-1,-1,-1,-1,-1,-1,-1,-1,-1,-1,-1,-1,-1,-1,-1,-1,-1,-1,-1,-1,-1,-1,-1,-1,-1,-1,-1,-1,-1,-1,-1,-1,-1,-1],"loss_changes":[4.2675625E3,2.6121724E3,1.2536143E3,1.3129417E3,9.587018E2,1.0282534E3,5.6987244E1,9.258142E2,1.7600415E2,2.724585E1,2.9032224E2,6.7055835E2,2.116211E2,1.0821045E1,1.0184019E1,8.4612537E2,3.4314722E2,1.0159363E1,1.1784706E2,2.2761597E1,1.5384888E1,1.1355047E2,9.598602E1,4.7678552E2,2.0483997E2,8.824951E0,2.0037146E2,2.6462402E0,4.357586E0,1.9562416E0,3.2432437E-1,4.634301E2,1.7896661E2,2.0672168E2,2.3980408E0,7.258362E0,1.0593245E0,7.745372E1,1.0985168E1,9.463257E0,1.8292003E0,1.41154175E1,0E0,7.826409E1,6.419499E1,7.265875E1,3.2693386E1,3.4318872E2,3.3928757E1,1.6746692E2,4.006555E1,7.962158E0,0E0,6.2739033E1,7.337048E1,2.373352E0,5.9588995E0,0E0,0E0,0E0,4.4612885E-2,0E0,0E0,4.8021667E2,3.2571167E2,1.4875366E1,7.351203E1,1.8614575E2,6.553601E1,2.4571838E0,0E0,5.8391724E0,0E0,1.8701298E0,0E0,2.6036491E0,5.0418015E1,9.933563E0,2.3458648E0,5.560547E0,6.0332017E0,0E0,0E0,1.2802673E1,0E0,2.0238365E1,9.932907E0,4.5465088E-1,6.3206398E1,4.200482E1,6.937304E1,2.8546173E1,1.4978928E1,1.03635864E2,3.120641E2,8.903198E-1,1.782898E0,1.1283844E1,7.8339516E1,2.1979858E1,1.5222767E1,7.364868E0,1.7615548E0,2.8103136E1,2.8299232E1,2.1108368E1,2.3622803E1,1.4963379E0,4.611674E0,5.52232E-1,0E0,1.7114258E-1,0E0,0E0,0E0,0E0,0E0,0E0,0E0,0E0,0E0,0E0,0E0,0E0,0E0,0E0,0E0,0E0,0E0,0E0,0E0,0E0,0E0,0E0,0E0,0E0,0E0,0E0,0E0,0E0,0E0,0E0,0E0,0E0,0E0,0E0,0E0,0E0,0E0,0E0,0E0,0E0,0E0,0E0,0E0,0E0,0E0,0E0,0E0,0E0,0E0,0E0,0E0,0E0,0E0,0E0,0E0,0E0,0E0,0E0,0E0,0E0,0E0,0E0,0E0,0E0,0E0,0E0,0E0,0E0,0E0,0E0,0E0,0E0,0E0,0E0,0E0,0E0,0E0,0E0,0E0,0E0,0E0,0E0,0E0,0E0,0E0],"parents":[2147483647,0,0,1,1,2,2,3,3,4,4,5,5,6,6,7,7,8,8,9,9,10,10,11,11,12,12,13,13,14,14,15,15,16,16,17,17,18,18,19,19,20,20,21,21,22,22,23,23,24,24,25,25,26,26,27,27,28,28,29,29,30,30,31,31,32,32,33,33,34,34,35,35,36,36,37,37,38,38,39,39,40,40,41,41,43,43,44,44,45,45,46,46,47,47,48,48,49,49,50,50,51,51,53,53,54,54,55,55,56,56,60,60,63,63,64,64,65,65,66,66,67,67,68,68,69,69,71,71,73,73,75,75,76,76,77,77,78,78,79,79,80,80,83,83,85,85,86,86,87,87,88,88,89,89,90,90,91,91,92,92,93,93,94,94,95,95,96,96,97,97,98,98,99,99,100,100,101,101,102,102,103,103,104,104,105,105,106,106,107,107,108,108,109,109,111,111],"right_children":[2,4,6,8,10,12,14,16,18,20,22,24,26,28,30,32,34,36,38,40,42,44,46,48,50,52,54,56,58,60,62,64,66,68,70,72,74,76,78,80,82,84,-1,86,88,90,92,94,96,98,100,102,-1,104,106,108,110,-1,-1,-1,112,-1,-1,114,116,118,120,122,124,126,-1,128,-1,130,-1,132,134,136,138,140,142,-1,-1,144,-1,146,148,150,152,154,156,158,160,162,164,166,168,170,172,174,176,178,180,182,184,186,188,190,192,194,-1,196,-1,-1,-1,-1,-1,-1,-1,-1,-1,-1,-1,-1,-1,-1,-1,-1,-1,-1,-1,-1,-1,-1,-1,-1,-1,-1,-1,-1,-1,-1,-1,-1,-1,-1,-1,-1,-1,-1,-1,-1,-1,-1,-1,-1,-1,-1,-1,-1,-1,-1,-1,-1,-1,-1,-1,-1,-1,-1,-1,-1,-1,-1,-1,-1,-1,-1,-1,-1,-1,-1,-1,-1,-1,-1,-1,-1,-1,-1,-1,-1,-1,-1,-1,-1,-1],"split_conditions":[7.490745E-1,3.8340304E-3,9.947686E-1,2.5607445E-3,9.960422E-1,3.8340304E-3,3.848169E-3,-4.3602097E-1,9.9613124E-1,-3.8838828E-1,-5.023455E-1,1.1767332E-2,9.960422E-1,6.9253547E-3,1.14383854E-1,-7.130804E-1,8.932775E-3,2.9494932E0,3.9727576E-3,2.0775917E0,9.542715E-1,-1.3078811E0,-4.3602097E-1,9.954705E-1,-9.94352E-2,9.1759837E-1,-5.023455E-1,4.6778163E-3,8.1361735E-1,-4.877517E-1,3.2982397E-1,3.8199786E-3,-3.9257056E-1,-2.4187653E-1,7.3375106E-3,5.1852423E-3,-1.4540094E-1,7.8594315E-1,2.2573304E0,3.9298007E0,-1.5299311E0,1.2345247E-3,-1.7663257E-1,-6.602385E-2,-2.2691011E-1,-2.2690628E-1,7.058014E-2,1.1061715E0,4.5530023E-3,9.9674046E-1,1.6971612E0,1.8502398E0,-1.4673239E-1,3.335193E-3,-1.7868705E-1,2.8455896E0,8.545525E-1,3.321162E-1,-1.3616765E-1,-7.2466286E-9,1.2594377E0,-1.6100904E-1,-7.2466286E-9,-7.26641E-1,9.9674046E-1,-2.678693E-1,-6.406756E-2,2.9728303E-3,-7.977724E-2,2.8933184E-3,-7.2466286E-9,3.7337483E-3,-1.3616765E-1,-4.987204E-2,-1.4673239E-1,4.5766544E0,-4.7341517E-1,-1.1413238E0,2.8975523E-1,9.806043E-1,1.5944282E-3,1.2157825E-1,-1.8137085E-1,7.757493E-1,-1.7368324E-1,3.215196E-3,-2.2689831E-1,8.559204E-3,3.988098E-3,7.34408E-1,-7.176156E-2,4.8389765E-3,3.7862575E-3,-2.678693E-1,3.335193E-3,-1.2029114E0,-9.4275095E-2,1.5944282E-3,-3.9257056E-1,1.5944282E-3,1.1495167E0,8.0043364E-1,2.552876E-1,-3.9257056E-1,-2.2688767E-1,-2.3042427E-1,1.9551592E-1,8.9160377E-1,-2.2686219E-1,-6.693654E-1,-1.9380297E-1,1.0201186E0,1.2157825E-1,-4.2431783E-2,-1.5831456E-1,2.8932866E-1,1.229352E-2,3.3584607E-1,8.1052154E-2,1.8974628E-2,1.8950456E-1,-1.1595468E-1,-1.0557814E-2,-1.8841855E-1,-1.1900006E-1,3.87476E-1,-7.2466286E-9,3.7851763E-1,-5.869296E-2,2.431565E-1,-1.2157826E-1,-1.5501595E-1,1.17385894E-1,1.9292666E-1,3.488177E-2,-5.6736525E-2,3.829413E-1,2.431565E-1,-8.9583986E-2,3.8364562E-1,-1.2157826E-1,-1.7020956E-1,3.094719E-1,3.048633E-1,-1.7020956E-1,1.1390684E-2,3.72773E-1,3.747074E-1,2.3316367E-2,-2.0692754E-1,-9.766123E-2,-3.8321115E-2,3.1066525E-1,2.9642576E-1,-1.8107401E-1,2.1031445E-1,-2.0143155E-2,7.83724E-2,3.7785107E-1,-1.4433771E-1,3.135439E-1,2.9330266E-1,9.41746E-2,2.5777947E-2,1.0008281E-1,-1.6486268E-1,-2.0987791E-1,3.504314E-1,-7.2466286E-9,3.0504507E-1,-1.6605811E-1,-7.9282485E-2,1.2425421E-1,3.3156002E-1,-8.77369E-2,1.8836524E-1,-1.6670008E-1,3.689434E-1,-7.736799E-2,2.0757261E-1,-3.211502E-2,-9.325149E-2,9.509997E-2,1.8022929E-1,-1.1073114E-1,2.1122928E-1,5.6211863E-2,3.329916E-1,9.596383E-2,-2.0528965E-1,-4.4791996E-2,-1.8693537E-1,6.304057E-2,2.0757261E-1,-7.2466286E-9,3.9488614E-1,1.8401031E-1],"split_indices":[11,20,18,23,20,20,121,1,23,2,5,17,20,292,1,1,428,3,366,5,115,1,1,14,2,61,5,218,292,5,5,17,2,3,287,242,1,4,4,3,4,146,0,11,12,12,5,11,291,17,11,2,0,430,2,3,218,0,0,0,5,0,0,1,17,3,2,19,2,380,0,25,0,11,0,5,1,11,366,305,115,0,0,265,0,97,12,81,76,5,11,305,300,3,430,4,5,115,2,115,3,291,20,2,12,3,5,76,12,4,0,4,0,0,0,0,0,0,0,0,0,0,0,0,0,0,0,0,0,0,0,0,0,0,0,0,0,0,0,0,0,0,0,0,0,0,0,0,0,0,0,0,0,0,0,0,0,0,0,0,0,0,0,0,0,0,0,0,0,0,0,0,0,0,0,0,0,0,0,0,0,0,0,0,0,0,0,0,0,0,0,0,0,0,0,0,0],"split_type":[0,0,0,0,0,0,0,0,0,0,0,0,0,0,0,0,0,0,0,0,0,0,0,0,0,0,0,0,0,0,0,0,0,0,0,0,0,0,0,0,0,0,0,0,0,0,0,0,0,0,0,0,0,0,0,0,0,0,0,0,0,0,0,0,0,0,0,0,0,0,0,0,0,0,0,0,0,0,0,0,0,0,0,0,0,0,0,0,0,0,0,0,0,0,0,0,0,0,0,0,0,0,0,0,0,0,0,0,0,0,0,0,0,0,0,0,0,0,0,0,0,0,0,0,0,0,0,0,0,0,0,0,0,0,0,0,0,0,0,0,0,0,0,0,0,0,0,0,0,0,0,0,0,0,0,0,0,0,0,0,0,0,0,0,0,0,0,0,0,0,0,0,0,0,0,0,0,0,0,0,0,0,0,0,0,0,0,0,0,0,0,0,0,0,0,0,0],"sum_hessian":[7.652444E4,5.0121773E4,2.6402666E4,4.514444E4,4.977333E3,2.519911E4,1.2035555E3,4.382444E4,1.3199999E3,1.5377777E3,3.4395554E3,2.216311E4,3.0359998E3,1.1804443E3,2.311111E1,2.2036887E4,2.1787555E4,3.9111108E2,9.2888885E2,7.084444E2,8.293333E2,1.7559999E3,1.6835554E3,1.9916443E4,2.2466665E3,1.0426666E3,1.9933333E3,1.1751111E3,5.333333E0,1.8666666E1,4.444444E0,2.0753777E4,1.2831111E3,2.1677777E4,1.0977777E2,3.862222E2,4.8888884E0,7.626666E2,1.6622221E2,7.013333E2,7.1111107E0,8.244444E2,4.8888884E0,2.8399997E2,1.4719999E3,9.431111E2,7.404444E2,1.9377777E4,5.386666E2,1.0217777E3,1.2248888E3,1.0404443E3,2.222222E0,6.0799994E2,1.3853333E3,1.1599999E3,1.5111111E1,3.5555553E0,1.7777777E0,1.3333333E0,1.7333332E1,3.111111E0,1.3333333E0,1.909111E4,1.6626666E3,4.6977774E2,8.133333E2,1.6106666E4,5.571111E3,1.08444435E2,1.3333333E0,3.8444443E2,1.7777777E0,2.6666665E0,2.222222E0,9.333333E1,6.693333E2,1.5955554E2,6.666666E0,6.946666E2,6.666666E0,1.3333333E0,5.7777777E0,8.1999994E2,4.444444E0,1.8577777E2,9.822221E1,1.871111E2,1.2848888E3,4.9599997E2,4.4711108E2,6.666666E2,7.377777E1,1.02133325E3,1.8356443E4,5.2888885E2,9.777777E0,3.4044443E2,6.813333E2,1.0911111E3,1.3377777E2,1.0319999E3,8.444444E0,2.7999997E2,3.2799997E2,5.911111E2,7.9422217E2,1.1337777E3,2.6222221E1,4.8888884E0,1.0222221E1,1.5999999E1,1.3333333E0,1.5560888E4,3.530222E3,4.7911108E2,1.1835555E3,4.4977774E2,1.9999998E1,4.0266666E2,4.1066666E2,1.4620888E4,1.4857777E3,4.0631108E3,1.5079999E3,1.0711111E2,1.3333333E0,3.822222E2,2.222222E0,1.3333333E0,1.3333333E0,9.111111E1,2.222222E0,3.9111108E2,2.782222E2,3.9999998E0,1.5555554E2,1.3333333E0,5.333333E0,6.933333E2,1.3333333E0,3.9999998E0,2.6666665E0,8.1599994E2,3.9999998E0,1.7333333E2,1.2444444E1,9.111111E1,7.1111107E0,1.8133333E2,5.7777777E0,1.2426666E3,4.222222E1,4.813333E2,1.4666666E1,2.7911108E2,1.6799998E2,6.4088885E2,2.5777777E1,6.844444E1,5.333333E0,7.231111E2,2.982222E2,8.318666E3,1.0037777E4,6.2666664E1,4.662222E2,8.444444E0,1.3333333E0,3.3688885E2,3.5555553E0,2.2799998E2,4.533333E2,1.0813333E3,9.777777E0,1.2399999E2,9.777777E0,1.0293333E3,2.6666665E0,3.5555553E0,4.8888884E0,1.8355554E2,9.6444435E1,2.9911108E2,2.8888887E1,5.0799997E2,8.311111E1,7.577777E2,3.6444443E1,1.1284443E3,5.333333E0,1.8222221E1,7.9999995E0,3.5555553E0,1.3333333E0,1.2888888E1,3.111111E0],"tree_param":{"num_deleted":"0","num_feature":"434","num_nodes":"197","size_leaf_vector":"1"}},{"base_weights":[-4.845964E-3,3.2738462E-1,-1.7875147E-1,4.1429204E-1,-1.1327711E-3,-2.2537081E-1,6.000404E-1,3.1872377E-1,7.062355E-1,-2.0508187E-1,1.1382285E-1,5.245825E-2,-3.5089558E-1,6.7990303E-1,-3.7891626E-2,2.6039815E-1,9.3095183E-1,9.616988E-1,5.0436E-1,7.274582E-1,2.012692E-2,5.526467E-1,-1.8896982E-2,-2.1716082E-1,-4.8180822E-1,8.379835E-1,4.5369035E-1,6.922203E-1,-2.3208268E-1,1.8428151E-1,6.6475874E-1,9.484299E-1,-2.5017104E-1,9.8752236E-1,7.565453E-1,-2.0580105E-1,6.4261854E-1,7.678431E-1,-2.027682E-1,1.20860614E-1,-5.237928E-1,8.794808E-1,-5.009298E-2,-4.5335304E-2,6.65273E-1,-2.3709252E-1,5.910617E-1,-4.9457064E-1,2.7396205E-1,5.1805335E-1,8.875264E-1,5.2197075E-1,-8.157727E-2,-1.591377E-1,7.628303E-1,2.0716451E-2,-5.2905774E-1,2.1902657E-1,-2.0331496E-1,1.0101779E0,4.9120286E-1,1.0074071E0,7.6954955E-1,-4.5051917E-1,3.3426628E-1,9.932153E-1,3.1747654E-1,8.159931E-1,-1.1909001E-1,7.1371186E-1,-7.4928865E-2,9.4810724E-1,6.6927254E-1,1.8156035E-1,-5.9821534E-1,-5.825172E-1,-1.6517335E-1,3.0336514E-1,3.6696327E-1,-1.551228E-1,6.1857045E-1,2.8081834E-2,-2.7337518E-1,3.4311473E-1,8.2631314E-1,-3.2640153E-1,-1.0790118E-1,2.289656E-1,8.7536573E-1,-5.228693E-1,-2.1857083E-1,-3.779841E-2,6.6268706E-1,8.7450796E-1,-1.52064E-1,9.351269E-1,5.6245524E-1,-1.5357201E-1,5.5362296E-1,1.8419176E-2,-1.8204936E-1,9.5560527E-1,2.8529197E-1,-1.9637907E-1,1.3701034E-1,8.409805E-2,-6.2228984E-1,4.892652E-2,2.3332633E-1,2.8987366E-1,3.6441736E-2,6.292972E-2,1.5949124E-1,2.8649375E-1,-1.3044858E-1,-1.813399E-1,2.2824739E-1,3.8882952E-2,-1.5367474E-1,1.8554963E-1,1.9767664E-2,2.8665116E-1,2.1819913E-1,-1.7742375E-1,2.5123385E-1,2.5293183E-1,4.232906E-2,-1.2118741E-1,1.625396E-1,1.7746063E-1,2.7215862E-1,-9.325533E-2,1.877684E-1,2.7608767E-1,-6.469225E-2,2.7369994E-1,1.6007765E-1,9.309887E-2,-2.0140074E-2,-1.7951721E-1,-1.4430887E-2,-1.7201911E-1,4.1657317E-2,-1.9249228E-1,-5.916473E-3,1.4771645E-1,-2.4795886E-2,-6.235563E-2,2.3267315E-1,2.1333806E-1,-1.9079739E-1,-3.0015705E-2,1.2390483E-1,-2.0090318E-1,-5.568001E-2,-4.264231E-2,1.2163492E-1,2.8024364E-1,1.6675948E-1,-7.3334806E-2,-1.401451E-1,-1.08761854E-1,-7.2901E-3,-4.1368052E-2,1.191314E-1,2.873072E-1,1.3772796E-1,-1.5181032E-1,4.220404E-2,1.8168785E-2,-1.23716265E-1,-1.7108695E-1,3.3557244E-2,3.0249918E-1,9.942217E-2,2.6381811E-1,-1.6887073E-1,-1.41599E-1,9.458508E-2,2.7560642E-1,1.9580334E-1,2.384869E-1,5.782752E-2,2.2511418E-1,-6.2333178E-2,2.38728E-1,1.3769014E-1,5.4370258E-2,-1.4340664E-1,2.0332424E-1,3.041482E-1,2.3882407E-1,-5.637904E-2,1.1986872E-1,-2.9819116E-2,-1.6766612E-1,1.2726405E-1,-1.815112E-1,9.7325206E-2],"categories":[],"categories_nodes":[],"categories_segments":[],"categories_sizes":[],"default_left":[0,0,0,0,0,0,0,0,0,0,0,0,0,0,0,0,0,0,0,0,0,0,0,0,0,0,0,0,0,0,0,0,0,0,0,0,0,0,0,0,0,0,0,0,0,0,0,0,0,0,0,0,0,0,0,0,0,0,0,0,0,0,0,0,0,0,0,0,0,0,0,0,0,0,0,0,0,0,0,0,0,0,0,0,0,0,0,0,0,0,0,0,0,0,0,0,0,0,0,0,0,0,0,0,0,0,0,0,0,0,0,0,0,0,0,0,0,0,0,0,0,0,0,0,0,0,0,0,0,0,0,0,0,0,0,0,0,0,0,0,0,0,0,0,0,0,0,0,0,0,0,0,0,0,0,0,0,0,0,0,0,0,0,0,0,0,0,0,0,0,0,0,0,0,0,0,0,0,0,0,0,0,0,0,0,0,0,0,0,0,0,0,0,0,0,0,0,0,0],"id":3,"left_children":[1,3,5,7,9,11,13,15,17,-1,19,21,23,25,27,29,31,33,35,37,39,41,43,45,47,49,51,53,55,57,59,61,63,65,67,-1,69,71,-1,73,75,77,79,81,83,85,87,89,91,93,95,97,99,-1,101,103,105,107,-1,109,111,113,115,117,119,121,123,125,127,129,131,133,135,137,139,141,143,-1,145,147,149,151,153,155,157,159,161,163,165,167,169,171,173,175,177,179,181,183,185,187,-1,189,191,-1,193,195,197,-1,-1,-1,-1,-1,-1,-1,-1,-1,-1,-1,-1,-1,-1,-1,-1,-1,-1,-1,-1,-1,-1,-1,-1,-1,-1,-1,-1,-1,-1,-1,-1,-1,-1,-1,-1,-1,-1,-1,-1,-1,-1,-1,-1,-1,-1,-1,-1,-1,-1,-1,-1,-1,-1,-1,-1,-1,-1,-1,-1,-1,-1,-1,-1,-1,-1,-1,-1,-1,-1,-1,-1,-1,-1,-1,-1,-1,-1,-1,-1,-1,-1,-1,-1,-1,-1,-1,-1,-1,-1,-1,-1],"loss_changes":[4.345311E3,7.3778467E2,1.792505E3,5.6992944E2,4.4872684E2,1.6244631E3,1.4209393E2,5.495741E2,2.593816E2,0E0,2.6820337E2,5.174109E2,5.6161206E2,8.824487E1,4.4283592E1,4.3260675E2,2.7877075E1,1.1030518E1,4.7941278E2,3.6539368E1,2.2186469E2,3.5658435E2,2.2953008E2,2.558399E2,1.5651099E2,2.2644958E1,3.738243E1,6.2356873E0,1.8522282E1,3.7060126E2,1.3300513E2,1.3146118E1,2.5293055E0,7.2042236E0,1.325798E1,0E0,1.2925085E2,1.0054718E1,0E0,1.4922597E2,1.3229309E1,1.1383093E2,4.485291E1,2.0453903E2,2.420996E1,1.7870538E2,3.9156418E1,1.2441113E2,3.2730267E1,4.7396133E1,1.8983398E1,1.9462006E1,6.534455E0,0E0,5.4861565E0,1.1218042E1,6.5359E0,3.200058E2,0E0,7.5063477E0,2.8265442E1,4.0963135E0,1.6873718E1,9.077444E-1,4.4183815E-1,6.7752686E0,1.02381735E1,1.1809143E1,3.8580804E0,4.9304077E1,4.3082497E1,6.4341583E0,1.162822E1,1.1671108E2,5.0078735E0,9.544846E0,6.6857004E0,0E0,2.2316807E1,3.497837E1,1.5448059E1,5.0577792E2,9.9608E1,6.787052E0,1.1519638E1,1.0410199E2,1.4341908E2,1.2193913E1,1.0962219E1,1.19266846E2,9.128869E1,1.3369188E1,1.4769722E1,1.1095718E1,1.1886761E1,9.121216E0,1.6146946E1,2.7647943E0,1.6607178E1,9.153599E0,0E0,4.6032715E-1,5.398064E0,0E0,8.076205E0,4.1658254E0,1.88937E0,0E0,0E0,0E0,0E0,0E0,0E0,0E0,0E0,0E0,0E0,0E0,0E0,0E0,0E0,0E0,0E0,0E0,0E0,0E0,0E0,0E0,0E0,0E0,0E0,0E0,0E0,0E0,0E0,0E0,0E0,0E0,0E0,0E0,0E0,0E0,0E0,0E0,0E0,0E0,0E0,0E0,0E0,0E0,0E0,0E0,0E0,0E0,0E0,0E0,0E0,0E0,0E0,0E0,0E0,0E0,0E0,0E0,0E0,0E0,0E0,0E0,0E0,0E0,0E0,0E0,0E0,0E0,0E0,0E0,0E0,0E0,0E0,0E0,0E0,0E0,0E0,0E0,0E0,0E0,0E0,0E0,0E0,0E0,0E0,0E0,0E0,0E0,0E0,0E0,0E0,0E0,0E0],"parents":[2147483647,0,0,1,1,2,2,3,3,4,4,5,5,6,6,7,7,8,8,10,10,11,11,12,12,13,13,14,14,15,15,16,16,17,17,18,18,19,19,20,20,21,21,22,22,23,23,24,24,25,25,26,26,27,27,28,28,29,29,30,30,31,31,32,32,33,33,34,34,36,36,37,37,39,39,40,40,41,41,42,42,43,43,44,44,45,45,46,46,47,47,48,48,49,49,50,50,51,51,52,52,54,54,55,55,56,56,57,57,59,59,60,60,61,61,62,62,63,63,64,64,65,65,66,66,67,67,68,68,69,69,70,70,71,71,72,72,73,73,74,74,75,75,76,76,78,78,79,79,80,80,81,81,82,82,83,83,84,84,85,85,86,86,87,87,88,88,89,89,90,90,91,91,92,92,93,93,94,94,95,95,96,96,97,97,98,98,99,99,101,101,102,102,104,104,105,105,106,106],"right_children":[2,4,6,8,10,12,14,16,18,-1,20,22,24,26,28,30,32,34,36,38,40,42,44,46,48,50,52,54,56,58,60,62,64,66,68,-1,70,72,-1,74,76,78,80,82,84,86,88,90,92,94,96,98,100,-1,102,104,106,108,-1,110,112,114,116,118,120,122,124,126,128,130,132,134,136,138,140,142,144,-1,146,148,150,152,154,156,158,160,162,164,166,168,170,172,174,176,178,180,182,184,186,188,-1,190,192,-1,194,196,198,-1,-1,-1,-1,-1,-1,-1,-1,-1,-1,-1,-1,-1,-1,-1,-1,-1,-1,-1,-1,-1,-1,-1,-1,-1,-1,-1,-1,-1,-1,-1,-1,-1,-1,-1,-1,-1,-1,-1,-1,-1,-1,-1,-1,-1,-1,-1,-1,-1,-1,-1,-1,-1,-1,-1,-1,-1,-1,-1,-1,-1,-1,-1,-1,-1,-1,-1,-1,-1,-1,-1,-1,-1,-1,-1,-1,-1,-1,-1,-1,-1,-1,-1,-1,-1,-1,-1,-1,-1,-1,-1,-1],"split_conditions":[-2.6044348E-1,8.592429E-1,9.947686E-1,4.9742347E-1,1.1896951E0,-5.023455E-1,1.2007518E0,9.947686E-1,5.452034E-1,-2.0508187E-1,-1.4556936E0,-2.2691031E-1,7.490745E-1,7.490745E-1,-5.023455E-1,9.954773E-1,4.600303E-3,4.169246E-3,8.4355927E-1,4.366649E-3,4.4413493E-3,3.7077938E-3,9.954705E-1,9.8683816E-1,9.897146E-1,-1.2615602E0,1.7471228E0,1.4762322E0,7.490745E-1,4.8357053E-3,-1.1917281E0,-4.4927743E-1,-3.0240056E-1,1.7938701E-3,4.074581E-3,-2.0580105E-1,4.4413493E-3,-2.2690849E-1,-2.027682E-1,3.8199786E-3,-1.2705733E-1,-1.4556936E0,-1.4977776E-1,8.592429E-1,4.9742347E-1,-3.6042262E-2,4.9742347E-1,9.954773E-1,3.293824E-1,4.169246E-3,3.7077938E-3,-1.6123122E0,3.848169E-3,-1.591377E-1,7.085751E-1,1.5358309E0,-3.9257056E-1,9.909901E-1,-2.0331496E-1,1.1753526E-2,-1.2332556E0,2.0909157E-1,-1.2705733E-1,-7.6747084E-1,-8.0256426E-1,4.4413493E-3,9.949876E-1,5.719972E-3,7.085751E-1,2.9417728E-3,7.8052884E-1,2.156918E-3,-1.5481912E0,1.2007518E0,-2.268393E-1,-2.268393E-1,9.921814E-1,3.0336514E-1,4.8357053E-3,9.4767183E-1,2.5651339E-3,4.9742347E-1,1.1896951E0,-2.2690715E-1,8.592429E-1,8.592429E-1,-8.8711977E-1,-7.1218294E-1,1.2007518E0,9.973684E-1,-1.968892E-1,-1.8225677E0,8.592429E-1,-1.562943E0,-4.499369E-2,8.592429E-1,7.7011156E-1,-1.4556936E0,-9.681329E-1,3.7077938E-3,-1.8204936E-1,1.185939E0,-2.2688885E-1,-1.9637907E-1,-1.936598E-1,-4.1527888E-1,7.34408E-1,4.892652E-2,2.3332633E-1,2.8987366E-1,3.6441736E-2,6.292972E-2,1.5949124E-1,2.8649375E-1,-1.3044858E-1,-1.813399E-1,2.2824739E-1,3.8882952E-2,-1.5367474E-1,1.8554963E-1,1.9767664E-2,2.8665116E-1,2.1819913E-1,-1.7742375E-1,2.5123385E-1,2.5293183E-1,4.232906E-2,-1.2118741E-1,1.625396E-1,1.7746063E-1,2.7215862E-1,-9.325533E-2,1.877684E-1,2.7608767E-1,-6.469225E-2,2.7369994E-1,1.6007765E-1,9.309887E-2,-2.0140074E-2,-1.7951721E-1,-1.4430887E-2,-1.7201911E-1,4.1657317E-2,-1.9249228E-1,-5.916473E-3,1.4771645E-1,-2.4795886E-2,-6.235563E-2,2.3267315E-1,2.1333806E-1,-1.9079739E-1,-3.0015705E-2,1.2390483E-1,-2.0090318E-1,-5.568001E-2,-4.264231E-2,1.2163492E-1,2.8024364E-1,1.6675948E-1,-7.3334806E-2,-1.401451E-1,-1.08761854E-1,-7.2901E-3,-4.1368052E-2,1.191314E-1,2.873072E-1,1.3772796E-1,-1.5181032E-1,4.220404E-2,1.8168785E-2,-1.23716265E-1,-1.7108695E-1,3.3557244E-2,3.0249918E-1,9.942217E-2,2.6381811E-1,-1.6887073E-1,-1.41599E-1,9.458508E-2,2.7560642E-1,1.9580334E-1,2.384869E-1,5.782752E-2,2.2511418E-1,-6.2333178E-2,2.38728E-1,1.3769014E-1,5.4370258E-2,-1.4340664E-1,2.0332424E-1,3.041482E-1,2.3882407E-1,-5.637904E-2,1.1986872E-1,-2.9819116E-2,-1.6766612E-1,1.2726405E-1,-1.815112E-1,9.7325206E-2],"split_indices":[13,0,18,0,0,5,0,18,0,0,8,12,11,11,5,27,163,428,0,98,22,431,14,14,14,0,13,0,11,27,13,11,0,229,26,0,22,12,0,17,11,8,2,0,0,5,0,27,0,428,431,0,121,0,11,0,2,16,0,58,0,0,11,4,8,22,229,16,11,426,426,365,13,0,12,12,22,0,27,16,238,0,0,12,0,0,0,4,0,34,2,0,0,0,11,0,13,8,8,431,0,4,12,0,2,5,5,0,0,0,0,0,0,0,0,0,0,0,0,0,0,0,0,0,0,0,0,0,0,0,0,0,0,0,0,0,0,0,0,0,0,0,0,0,0,0,0,0,0,0,0,0,0,0,0,0,0,0,0,0,0,0,0,0,0,0,0,0,0,0,0,0,0,0,0,0,0,0,0,0,0,0,0,0,0,0,0,0,0,0,0,0,0,0,0,0,0,0,0],"split_type":[0,0,0,0,0,0,0,0,0,0,0,0,0,0,0,0,0,0,0,0,0,0,0,0,0,0,0,0,0,0,0,0,0,0,0,0,0,0,0,0,0,0,0,0,0,0,0,0,0,0,0,0,0,0,0,0,0,0,0,0,0,0,0,0,0,0,0,0,0,0,0,0,0,0,0,0,0,0,0,0,0,0,0,0,0,0,0,0,0,0,0,0,0,0,0,0,0,0,0,0,0,0,0,0,0,0,0,0,0,0,0,0,0,0,0,0,0,0,0,0,0,0,0,0,0,0,0,0,0,0,0,0,0,0,0,0,0,0,0,0,0,0,0,0,0,0,0,0,0,0,0,0,0,0,0,0,0,0,0,0,0,0,0,0,0,0,0,0,0,0,0,0,0,0,0,0,0,0,0,0,0,0,0,0,0,0,0,0,0,0,0,0,0,0,0,0,0,0,0],"sum_hessian":[7.5206664E4,2.5840283E4,4.9366383E4,2.0434254E4,5.4060283E3,4.6578832E4,2.7875498E3,1.5396328E4,5.037927E3,7.419723E2,4.664056E3,1.4495637E4,3.2083197E4,2.4773452E3,3.1020444E2,1.4058437E4,1.337891E3,2.2221477E3,2.8157788E3,6.169235E2,4.0471326E3,1.8088875E3,1.2686749E4,1.5871852E4,1.6211346E4,1.4566876E3,1.02065765E3,6.463346E1,2.4557097E2,1.1832541E4,2.225896E3,1.3185759E3,1.9315086E1,1.9703206E3,2.5182722E2,2.84134E2,2.531645E3,6.0057404E2,1.6349514E1,3.4153828E3,6.3174963E2,1.1725929E3,6.362947E2,1.2215636E4,4.7111398E2,1.5490543E4,3.8130807E2,1.5942477E4,2.6886932E2,1.968644E2,1.2598232E3,9.0521094E2,1.15446724E2,3.0770543E0,6.1556404E1,1.3315414E2,1.1241683E2,1.1393908E4,4.386332E2,7.427732E2,1.4831228E3,9.881496E2,3.3042627E2,1.4554775E1,4.760311E0,1.9532429E3,1.7077715E1,2.3588113E2,1.5946092E1,2.3034304E3,2.2821439E2,2.0926163E2,3.9131238E2,3.15021E3,2.6517285E2,5.423197E2,8.942991E1,8.547853E2,3.1780756E2,5.505806E2,8.5714035E1,9.241291E3,2.9743445E3,1.5805602E2,3.1305798E2,9.158095E3,6.3324487E3,1.6850348E2,2.1280458E2,1.4459072E4,1.4834043E3,1.497064E2,1.19162926E2,1.2830846E2,6.855595E1,1.0972719E3,1.6255138E2,4.0342453E1,8.6486847E2,9.878015E1,1.6666567E1,4.3140236E1,1.8416166E1,1.7978756E1,1.15175385E2,1.485019E1,9.756664E1,1.0579021E4,8.148865E2,7.3293335E2,9.839829E0,3.1028296E2,1.1728398E3,9.867783E2,1.3713173E0,7.600089E0,3.2282617E2,1.8878684E0,1.2666906E1,1.4887446E0,3.2715666E0,1.810357E3,1.4288583E2,6.383148E0,1.0694567E1,2.1155501E2,2.432612E1,1.129863E1,4.6474624E0,1.6977712E3,6.0565924E2,1.7015697E2,5.805742E1,2.0505461E2,4.2070127E0,1.0042624E2,2.9088614E2,1.9929292E3,1.1572809E3,2.4926219E2,1.5910659E1,5.253027E2,1.7017008E1,1.8811325E1,7.061858E1,2.3734889E2,8.045864E1,5.1706244E2,3.3518177E1,7.806257E1,7.6514673E0,6.961432E3,2.2798586E3,4.467273E2,2.5276172E3,2.3267368E1,1.3478865E2,1.8474957E2,1.283084E2,6.5198696E3,2.6382249E3,1.4544407E3,4.8780083E3,5.6959488E1,1.11544E2,1.5616513E2,5.6639442E1,1.4199817E4,2.5925473E2,6.454992E2,8.379051E2,3.1773151E1,1.1793325E2,5.0918636E1,6.824429E1,1.2399622E2,4.312229E0,3.9959736E1,2.859621E1,9.526924E2,1.4457947E2,9.077744E1,7.1773926E1,1.916105E0,3.842635E1,1.6357353E2,7.012949E2,7.4711136E1,2.4069016E1,1.6489962E1,2.6650274E1,8.222261E0,1.0193906E1,5.2508068E1,6.2667316E1,4.988817E0,9.861372E0,9.615585E1,1.4107857E0],"tree_param":{"num_deleted":"0","num_feature":"434","num_nodes":"199","size_leaf_vector":"1"}},{"base_weights":[3.946728E-3,-2.0906498E-1,1.2728724E-1,-4.840437E-1,-1.4015858E-1,2.3215689E-1,-8.348913E-3,-6.0556847E-1,-4.1802573E-1,-4.189156E-1,-1.21849105E-1,2.6687762E-1,-1.2379191E-1,-3.541147E-1,4.5690786E-2,-6.07966E-1,4.6102574E-1,-4.3215355E-1,-7.575592E-2,-4.241368E-1,7.0080626E-1,-8.417366E-2,-2.5987428E-1,7.043129E-2,3.1440616E-1,-1.9001384E-1,2.3852305E-1,2.5888639E-2,-4.699653E-1,9.266812E-2,-2.429216E-1,-6.235601E-1,-4.3768162E-1,-1.14715785E-1,2.7274317E-1,-4.354897E-1,7.5716984E-1,5.716334E-1,-1.9416405E-1,-4.4689015E-1,-1.4833333E-1,8.753463E-1,-1.0036546E-3,-9.873112E-2,2.7767053E-1,-2.8689834E-1,1.7650694E-1,-3.874369E-1,9.750317E-2,2.3306294E-1,4.4615123E-1,-5.1017713E-2,-3.3921832E-1,1.09503746E-1,9.451091E-1,-1.3318384E-1,3.7541398E-1,-6.0657966E-1,-1.6084057E-1,1.4088199E-1,-2.3427252E-1,-2.8538406E-2,-3.3924463E-1,-6.251085E-1,2.1174429E-2,-4.643337E-1,2.7848247E-1,-4.506241E-1,-2.0942119E-1,3.4878173E-1,3.9784223E-2,7.962795E-1,-2.2234218E-1,1.9996248E-2,-4.2772937E-1,-4.6467337E-1,-3.542788E-2,-1.8919383E-1,2.5972608E-1,3.1200248E-1,7.2779894E-2,-1.1503291E-1,1.47221E-1,3.7441665E-1,5.0505105E-2,-3.0222836E-1,2.241848E-1,2.5070965E-1,-6.7488366E-1,-4.3027145E-1,5.842362E-1,-4.011063E-1,1.1957927E-1,2.826032E-1,-4.3093976E-2,2.1676826E-1,4.992141E-1,-3.5266408E-1,7.814459E-2,-3.5561025E-1,8.93022E-1,-5.080504E-2,8.939412E-1,1.1740764E0,-3.5026065E-1,-1.8053295E-1,2.5555727E-1,4.9219838E-1,-4.0755817E-1,-6.1365384E-1,-8.644067E-3,-2.5657687E-1,1.5362887E-1,1.8254727E-1,-1.3491087E-1,-2.8439757E-1,6.7072827E-1,-3.641028E-1,2.2355811E-1,-4.2956603E-1,-3.787644E-2,-1.7803864E-1,-6.332861E-2,-1.12440705E-1,8.2741864E-2,-1.3940911E-1,2.339523E-1,-1.3243887E-1,-6.421964E-2,-1.0261234E-2,-1.7150272E-1,-1.2572952E-1,1.161595E-1,2.858515E-1,-7.019994E-2,1.9054314E-2,-8.9247555E-2,-8.793968E-3,2.6247588E-1,-1.2967707E-1,1.526568E-1,-1.3338667E-1,1.9523706E-1,-2.672421E-2,3.3586958E-1,6.987107E-2,-7.745397E-2,-1.4152316E-2,-6.642538E-2,5.798957E-2,-5.5172417E-2,1.1461215E-1,-1.0711893E-1,-2.181873E-2,1.6307694E-1,-8.9980975E-2,9.376143E-3,8.7435454E-2,-1.9312954E-1,3.7490133E-2,1.415147E-1,-2.0376015E-1,-3.8282916E-2,-1.4562422E-1,-5.4917812E-2,2.1621926E-1,-1.2589256E-1,-1.2754579E-1,7.8069165E-2,4.8851557E-2,-1.3537637E-2,-2.0298234E-3,9.180902E-2,2.3178838E-2,-6.59269E-2,1.9091614E-2,1.22134246E-1,1.4627096E-1,-2.1294719E-2,8.3531894E-2,-1.5046525E-1,1.647743E-1,7.755368E-3,-1.171174E-1,-1.40149E-2,3.209491E-1,-5.700167E-2,1.3274118E-2,-2.1344823E-1,3.053042E-1,6.707358E-2,2.4893092E-1,3.727898E-1,-1.515202E-1,1.24755114E-1,-1.3246223E-3,-7.532938E-2,1.333431E-1,-1.3537596E-1,1.6871007E-1,-6.824987E-2,1.726621E-1,-1.811532E-1,-1.7831515E-1,-1.2874642E-1,1.8166693E-1,-1.8347484E-1,-7.928141E-2,1.5344617E-1,-4.487674E-2,1.2136849E-1,2.8286867E-2,8.922213E-2,-6.2592864E-2,3.0634468E-2,7.1596555E-2,-9.978527E-2,-3.168558E-3,2.708806E-1,1.235935E-1,-1.1529919E-1,7.688773E-2,-1.941435E-1,-1.2528919E-1,3.536783E-1,-1.3487703E-1,4.8319448E-2],"categories":[],"categories_nodes":[],"categories_segments":[],"categories_sizes":[],"default_left":[0,0,0,0,0,0,0,0,0,0,0,0,0,0,0,0,0,0,0,0,0,0,0,0,0,0,0,0,0,0,0,0,0,0,0,0,0,0,0,0,0,0,0,0,0,0,0,0,0,0,0,0,0,0,0,0,0,0,0,0,0,0,0,0,0,0,0,0,0,0,0,0,0,0,0,0,0,0,0,0,0,0,0,0,0,0,0,0,0,0,0,0,0,0,0,0,0,0,0,0,0,0,0,0,0,0,0,0,0,0,0,0,0,0,0,0,0,0,0,0,0,0,0,0,0,0,0,0,0,0,0,0,0,0,0,0,0,0,0,0,0,0,0,0,0,0,0,0,0,0,0,0,0,0,0,0,0,0,0,0,0,0,0,0,0,0,0,0,0,0,0,0,0,0,0,0,0,0,0,0,0,0,0,0,0,0,0,0,0,0,0,0,0,0,0,0,0,0,0,0,0,0,0,0,0,0,0,0,0,0,0,0,0,0,0,0,0,0,0,0,0,0,0,0,0,0,0],"id":4,"left_children":[1,3,5,7,9,11,13,15,17,19,21,23,25,27,29,31,33,35,37,39,41,43,45,47,49,51,53,55,57,59,61,63,65,-1,-1,67,69,71,73,75,77,79,-1,81,83,85,87,89,91,93,95,97,99,101,103,105,107,109,111,113,115,117,119,121,123,125,-1,127,129,-1,131,133,135,137,139,141,143,145,-1,-1,-1,147,149,151,153,155,157,159,161,163,165,167,169,171,173,175,177,179,181,183,185,187,189,191,193,195,197,199,201,203,205,207,209,211,213,215,217,219,221,223,225,-1,-1,-1,-1,-1,-1,-1,-1,-1,-1,-1,-1,-1,-1,-1,-1,-1,-1,-1,-1,-1,-1,-1,-1,-1,-1,-1,-1,-1,-1,-1,-1,-1,-1,-1,-1,-1,-1,-1,-1,-1,-1,-1,-1,-1,-1,-1,-1,-1,-1,-1,-1,-1,-1,-1,-1,-1,-1,-1,-1,-1,-1,-1,-1,-1,-1,-1,-1,-1,-1,-1,-1,-1,-1,-1,-1,-1,-1,-1,-1,-1,-1,-1,-1,-1,-1,-1,-1,-1,-1,-1,-1,-1,-1,-1,-1,-1,-1,-1,-1,-1,-1,-1,-1,-1,-1],"loss_changes":[1.986958E3,5.254042E2,6.8126324E2,4.432605E1,1.131384E2,3.3385535E2,3.902525E2,5.276306E0,1.7393433E1,8.285919E0,1.08201904E2,2.2976233E2,5.7659584E1,1.2429184E2,2.4492355E2,4.904663E0,2.5326712E0,1.4061218E1,1.1154745E1,8.472961E0,8.291254E-1,8.615407E1,5.2671844E1,5.948169E1,2.1225525E2,4.209835E1,3.3764847E1,3.6774532E1,9.126932E1,2.4491374E2,5.2210114E1,1.7941284E0,6.770653E0,0E0,0E0,1.1715149E1,3.3548427E0,4.1954966E0,6.138015E0,9.177795E0,4.746364E0,4.6638632E-1,0E0,6.3041E1,1.3884464E1,3.2992554E1,1.6647587E1,1.1402523E1,4.989742E1,1.676524E2,9.195056E1,4.1035286E1,2.0096977E1,3.969279E1,1.7385918E1,8.414965E0,1.9114637E1,6.3398438E0,2.004355E1,1.556033E2,9.0776726E1,6.649267E1,4.747574E1,1.6404419E0,7.075499E-1,6.1513596E0,0E0,1.1666565E1,1.4932309E1,0E0,1.0781034E0,4.1716347E0,1.7472705E-1,3.0238008E0,1.9111528E0,7.9932556E0,3.9201567E0,3.7963398E0,0E0,0E0,0E0,1.1439075E2,1.9144863E1,1.002467E1,1.2745643E1,2.0477448E1,9.5599165E0,7.0136213E0,3.9923763E-1,4.9567757E0,2.4852285E0,6.429497E0,3.819689E1,1.2352478E2,4.407297E1,4.5427246E1,5.7884644E1,3.6471725E1,1.8827175E1,1.692913E1,3.6534805E0,1.802576E1,6.16362E0,8.762436E-1,1.5954541E0,6.0666866E0,8.048138E0,1.3699123E1,6.8199997E0,3.2493286E0,8.098453E0,9.458622E0,1.3380417E1,1.285502E2,3.7040405E1,6.852008E1,2.0373642E1,1.1592533E1,1.9535229E1,2.7747498E1,3.683522E1,0E0,0E0,0E0,0E0,0E0,0E0,0E0,0E0,0E0,0E0,0E0,0E0,0E0,0E0,0E0,0E0,0E0,0E0,0E0,0E0,0E0,0E0,0E0,0E0,0E0,0E0,0E0,0E0,0E0,0E0,0E0,0E0,0E0,0E0,0E0,0E0,0E0,0E0,0E0,0E0,0E0,0E0,0E0,0E0,0E0,0E0,0E0,0E0,0E0,0E0,0E0,0E0,0E0,0E0,0E0,0E0,0E0,0E0,0E0,0E0,0E0,0E0,0E0,0E0,0E0,0E0,0E0,0E0,0E0,0E0,0E0,0E0,0E0,0E0,0E0,0E0,0E0,0E0,0E0,0E0,0E0,0E0,0E0,0E0,0E0,0E0,0E0,0E0,0E0,0E0,0E0,0E0,0E0,0E0,0E0,0E0,0E0,0E0,0E0,0E0,0E0,0E0,0E0,0E0,0E0,0E0],"parents":[2147483647,0,0,1,1,2,2,3,3,4,4,5,5,6,6,7,7,8,8,9,9,10,10,11,11,12,12,13,13,14,14,15,15,16,16,17,17,18,18,19,19,20,20,21,21,22,22,23,23,24,24,25,25,26,26,27,27,28,28,29,29,30,30,31,31,32,32,35,35,36,36,37,37,38,38,39,39,40,40,41,41,43,43,44,44,45,45,46,46,47,47,48,48,49,49,50,50,51,51,52,52,53,53,54,54,55,55,56,56,57,57,58,58,59,59,60,60,61,61,62,62,63,63,64,64,65,65,67,67,68,68,70,70,71,71,72,72,73,73,74,74,75,75,76,76,77,77,81,81,82,82,83,83,84,84,85,85,86,86,87,87,88,88,89,89,90,90,91,91,92,92,93,93,94,94,95,95,96,96,97,97,98,98,99,99,100,100,101,101,102,102,103,103,104,104,105,105,106,106,107,107,108,108,109,109,110,110,111,111,112,112,113,113,114,114,115,115,116,116,117,117,118,118,119,119,120,120],"right_children":[2,4,6,8,10,12,14,16,18,20,22,24,26,28,30,32,34,36,38,40,42,44,46,48,50,52,54,56,58,60,62,64,66,-1,-1,68,70,72,74,76,78,80,-1,82,84,86,88,90,92,94,96,98,100,102,104,106,108,110,112,114,116,118,120,122,124,126,-1,128,130,-1,132,134,136,138,140,142,144,146,-1,-1,-1,148,150,152,154,156,158,160,162,164,166,168,170,172,174,176,178,180,182,184,186,188,190,192,194,196,198,200,202,204,206,208,210,212,214,216,218,220,222,224,226,-1,-1,-1,-1,-1,-1,-1,-1,-1,-1,-1,-1,-1,-1,-1,-1,-1,-1,-1,-1,-1,-1,-1,-1,-1,-1,-1,-1,-1,-1,-1,-1,-1,-1,-1,-1,-1,-1,-1,-1,-1,-1,-1,-1,-1,-1,-1,-1,-1,-1,-1,-1,-1,-1,-1,-1,-1,-1,-1,-1,-1,-1,-1,-1,-1,-1,-1,-1,-1,-1,-1,-1,-1,-1,-1,-1,-1,-1,-1,-1,-1,-1,-1,-1,-1,-1,-1,-1,-1,-1,-1,-1,-1,-1,-1,-1,-1,-1,-1,-1,-1,-1,-1,-1,-1,-1],"split_conditions":[-3.9257056E-1,-1.4556936E0,2.0909157E-1,-1.5672867E0,-1.4580679E0,3.8340304E-3,5.452034E-1,4.600303E-3,9.798668E-1,3.774034E-3,8.859945E-1,-5.023455E-1,9.095018E-1,4.9742347E-1,4.4413493E-3,5.759957E-1,-1.6586877E-1,4.4522506E-1,-4.406262E-1,7.419911E-1,3.9126065E-1,9.9674046E-1,9.963586E-1,-1.5643452E0,-5.101886E-1,-6.753706E-2,-2.678693E-1,-2.678693E-1,6.759566E-1,3.8199786E-3,5.6129023E-2,3.5863544E-3,1.2137997E-2,-1.14715785E-1,2.7274317E-1,1.8582277E-1,-1.0100868E0,1.0586495E0,1.4347575E0,1.5358309E0,4.0239473E-3,-2.3049372E-1,-1.0036546E-3,1.5358309E0,4.4413493E-3,9.960422E-1,7.3375106E-3,9.5752865E-1,-1.4556936E0,7.0442927E-1,-2.607778E-1,-1.2332556E0,9.4332016E-1,8.635939E-2,4.3469463E-2,8.5437346E-1,1.8785754E0,2.579596E-3,1.6798013E-1,3.8340304E-3,4.9665356E-1,9.963586E-1,4.3361178E-1,6.436138E-3,-1.6586877E-1,1.2271999E-2,2.7848247E-1,9.912833E-1,2.4589868E0,3.4878173E-1,1.0993947E0,2.4589868E0,-1.1450852E0,3.7862575E-3,5.2745915E-3,2.603279E-1,6.9445525E-3,1.7896032E-1,2.5972608E-1,3.1200248E-1,7.2779894E-2,2.0909157E-1,1.4562199E0,8.436551E-4,5.452034E-1,9.384279E-1,5.1944926E-3,-4.962399E-1,1.7665216E0,6.9792366E-1,4.442628E-1,3.7337483E-3,4.4413493E-3,-1.8225677E0,3.428013E-1,-2.0464084E-3,2.1140628E0,4.169246E-3,-1.1598545E0,1.5128767E-1,-4.1957697E-1,5.731628E-3,1.5128767E-1,-4.9461234E-1,1.1495167E0,-9.745436E-1,3.983415E-3,3.8340304E-3,-1.6891891E-1,1.1747792E-1,-6.0623056E-1,5.387447E-1,-4.7661105E-1,-2.678693E-1,4.3583912E-1,-1.1382971E0,9.9674046E-1,-1.3170555E0,1.0703094E-2,1.0947951E-3,9.963586E-1,-1.7803864E-1,-6.332861E-2,-1.12440705E-1,8.2741864E-2,-1.3940911E-1,2.339523E-1,-1.3243887E-1,-6.421964E-2,-1.0261234E-2,-1.7150272E-1,-1.2572952E-1,1.161595E-1,2.858515E-1,-7.019994E-2,1.9054314E-2,-8.9247555E-2,-8.793968E-3,2.6247588E-1,-1.2967707E-1,1.526568E-1,-1.3338667E-1,1.9523706E-1,-2.672421E-2,3.3586958E-1,6.987107E-2,-7.745397E-2,-1.4152316E-2,-6.642538E-2,5.798957E-2,-5.5172417E-2,1.1461215E-1,-1.0711893E-1,-2.181873E-2,1.6307694E-1,-8.9980975E-2,9.376143E-3,8.7435454E-2,-1.9312954E-1,3.7490133E-2,1.415147E-1,-2.0376015E-1,-3.8282916E-2,-1.4562422E-1,-5.4917812E-2,2.1621926E-1,-1.2589256E-1,-1.2754579E-1,7.8069165E-2,4.8851557E-2,-1.3537637E-2,-2.0298234E-3,9.180902E-2,2.3178838E-2,-6.59269E-2,1.9091614E-2,1.22134246E-1,1.4627096E-1,-2.1294719E-2,8.3531894E-2,-1.5046525E-1,1.647743E-1,7.755368E-3,-1.171174E-1,-1.40149E-2,3.209491E-1,-5.700167E-2,1.3274118E-2,-2.1344823E-1,3.053042E-1,6.707358E-2,2.4893092E-1,3.727898E-1,-1.515202E-1,1.24755114E-1,-1.3246223E-3,-7.532938E-2,1.333431E-1,-1.3537596E-1,1.6871007E-1,-6.824987E-2,1.726621E-1,-1.811532E-1,-1.7831515E-1,-1.2874642E-1,1.8166693E-1,-1.8347484E-1,-7.928141E-2,1.5344617E-1,-4.487674E-2,1.2136849E-1,2.8286867E-2,8.922213E-2,-6.2592864E-2,3.0634468E-2,7.1596555E-2,-9.978527E-2,-3.168558E-3,2.708806E-1,1.235935E-1,-1.1529919E-1,7.688773E-2,-1.941435E-1,-1.2528919E-1,3.536783E-1,-1.3487703E-1,4.8319448E-2],"split_indices":[2,8,0,4,4,20,0,163,20,262,4,5,425,0,22,5,0,194,9,20,0,17,22,9,0,2,3,3,428,17,8,188,357,0,0,22,1,1,4,0,189,8,0,0,425,20,287,15,8,2,8,0,402,4,4,425,9,240,2,20,425,22,1,340,0,20,0,23,4,0,4,4,4,300,409,196,327,8,0,0,0,0,8,334,0,17,143,5,4,428,3,25,425,0,5,1,9,428,9,0,4,303,0,5,3,1,15,20,2,22,4,17,5,3,1,1,17,8,186,416,22,0,0,0,0,0,0,0,0,0,0,0,0,0,0,0,0,0,0,0,0,0,0,0,0,0,0,0,0,0,0,0,0,0,0,0,0,0,0,0,0,0,0,0,0,0,0,0,0,0,0,0,0,0,0,0,0,0,0,0,0,0,0,0,0,0,0,0,0,0,0,0,0,0,0,0,0,0,0,0,0,0,0,0,0,0,0,0,0,0,0,0,0,0,0,0,0,0,0,0,0,0,0,0,0,0,0],"split_type":[0,0,0,0,0,0,0,0,0,0,0,0,0,0,0,0,0,0,0,0,0,0,0,0,0,0,0,0,0,0,0,0,0,0,0,0,0,0,0,0,0,0,0,0,0,0,0,0,0,0,0,0,0,0,0,0,0,0,0,0,0,0,0,0,0,0,0,0,0,0,0,0,0,0,0,0,0,0,0,0,0,0,0,0,0,0,0,0,0,0,0,0,0,0,0,0,0,0,0,0,0,0,0,0,0,0,0,0,0,0,0,0,0,0,0,0,0,0,0,0,0,0,0,0,0,0,0,0,0,0,0,0,0,0,0,0,0,0,0,0,0,0,0,0,0,0,0,0,0,0,0,0,0,0,0,0,0,0,0,0,0,0,0,0,0,0,0,0,0,0,0,0,0,0,0,0,0,0,0,0,0,0,0,0,0,0,0,0,0,0,0,0,0,0,0,0,0,0,0,0,0,0,0,0,0,0,0,0,0,0,0,0,0,0,0,0,0,0,0,0,0,0,0,0,0,0,0],"sum_hessian":[7.562543E4,2.7731625E4,4.7893805E4,5.5555513E3,2.2176074E4,2.700989E4,2.0883916E4,1.9527626E3,3.6027888E3,1.3654578E3,2.0810617E4,2.4609615E4,2.4002747E3,2.8220232E3,1.8061893E4,1.948812E3,3.9505494E0,3.45972E3,1.4306871E2,1.3597386E3,5.7191615E0,1.6349465E4,4.461152E3,4.7946616E3,1.9814955E4,2.0297616E3,3.705131E2,6.5951483E2,2.1625085E3,1.5534093E4,2.5277998E3,1.7828799E3,1.6593217E2,1.5177227E0,2.4328265E0,3.4506743E3,9.045686E0,2.152955E1,1.2153916E2,1.2555385E3,1.0420025E2,4.38881E0,1.3303511E0,1.5717843E4,6.316224E2,4.201317E3,2.5983508E2,2.6691983E2,4.5277417E3,1.2252608E4,7.562345E3,1.0515236E3,9.7823804E2,3.142817E2,5.623139E1,4.536659E2,2.0584892E2,1.4990549E3,6.634535E2,1.3538188E4,1.9959043E3,7.8405316E2,1.7437467E3,1.7786387E3,4.241138E0,1.6353424E2,2.3979394E0,3.2332295E3,2.1744496E2,5.0241055E0,4.0215797E0,1.6779177E1,4.7503743E0,6.3880424E1,5.7658737E1,1.2033987E3,5.2139767E1,1.01138016E2,3.0622284E0,2.6500528E0,1.7387575E0,1.4741315E4,9.7652686E2,4.425144E2,1.8910799E2,4.0793643E3,1.2195251E2,2.3965367E2,2.0181425E1,2.561836E2,1.0736231E1,1.912399E2,4.336502E3,1.0388902E4,1.8637065E3,1.4216869E3,6.1406587E3,3.1474228E2,7.367813E2,9.660979E2,1.2140143E1,2.6172952E2,5.2552197E1,4.7864567E1,8.366822E0,4.0488593E2,4.8779972E1,1.7945383E2,2.6395098E1,1.481501E3,1.7553955E1,5.0875385E2,1.5469968E2,1.1761642E4,1.7765468E3,1.891809E3,1.04095375E2,3.3615485E2,4.4789832E2,1.3413213E3,4.0242532E2,1.7671296E3,1.1509102E1,1.4844475E0,2.7566903E0,1.6077386E2,2.7603621E0,3.0139841E3,2.1924536E2,1.5192453E2,6.5520424E1,1.6573744E0,2.3642054E0,1.3982235E1,2.7969408E0,1.2137365E0,3.5366378E0,6.1387997E1,2.4924273E0,5.6467163E1,1.1915739E0,1.19825E3,5.1486235E0,5.062242E1,1.5173442E0,1.6014082E1,8.512393E1,9.530617E3,5.2106987E3,8.3685345E2,1.3967343E2,4.262022E2,1.6312214E1,1.5282486E2,3.628314E1,3.9051655E3,1.7419876E2,1.1219424E2,9.758268E0,1.6320914E2,7.6444534E1,1.8374704E1,1.8067213E0,1.8876703E2,6.7416565E1,9.372433E0,1.3637979E0,1.7875568E2,1.248422E1,3.2988057E3,1.037696E3,1.2887023E3,9.1002E3,1.1235537E3,7.4015283E2,8.374403E2,5.8424664E2,5.970257E3,1.704016E2,6.767767E1,2.4706462E2,6.6672134E1,6.701092E2,8.136598E2,1.524381E2,9.940227E0,2.1999168E0,2.3058727E2,3.1142254E1,4.0646984E1,1.1905212E1,1.7681921E1,3.0182648E1,7.050043E0,1.3167791E0,1.3228062E2,2.7260532E2,3.8012093E1,1.0767878E1,1.5759485E2,2.1858974E1,4.5863023E0,2.1808796E1,1.352326E3,1.2917494E2,8.700784E0,8.853171E0,4.9518683E2,1.3567005E1,7.258241E1,8.211726E1,7.2270493E3,4.5345923E3,1.3131517E3,4.63395E2,2.1060349E2,1.6812054E3,3.0900368E1,7.319501E1,1.6432014E1,3.1972284E2,4.2630783E2,2.1590502E1,1.3324504E3,8.870898E0,1.2933202E2,2.730933E2],"tree_param":{"num_deleted":"0","num_feature":"434","num_nodes":"227","size_leaf_vector":"1"}},{"base_weights":[1.710483E-3,-1.3803971E-1,2.5004822E-1,-2.0233646E-1,3.9587802E-1,9.1701284E-2,4.768856E-1,-2.6095158E-1,4.135413E-1,8.553254E-1,1.7093855E-1,4.9878794E-1,-6.203885E-2,5.741436E-1,1.03094846E-1,-3.1167817E-1,1.8909945E-1,1.0812536E0,1.2623192E-1,8.628077E-1,-4.783261E-1,-6.1442286E-2,3.963532E-1,5.3715867E-1,-6.465963E-1,-1.562384E-1,5.708109E-1,9.2813367E-1,4.4408685E-1,-2.9995844E-3,7.054166E-1,-3.711261E-1,-1.0656255E-2,3.0577382E-1,-3.6679804E-1,1.1891798E0,9.2729926E-1,-3.3580768E-1,5.864545E-1,8.677489E-1,-2.0222247E-1,1.07571356E-1,-1.859008E-1,1.52068E-1,-2.965292E-1,5.6925124E-1,1.7180103E-1,7.4933606E-1,3.9594847E-1,-6.601505E-1,1.4133544E-1,-1.9531259E-1,6.110357E-1,3.1265458E-1,8.08208E-1,9.4844466E-1,-4.447698E-1,4.825584E-1,-5.2354354E-1,-3.148959E-2,1.0447009E0,8.218376E-1,-3.1535813E-1,-4.127447E-1,-6.2154207E-2,1.0870186E0,-6.508482E-2,-2.763463E-1,4.0016803E-1,-4.8665717E-1,6.5345395E-1,1.1999192E0,-1.7092349E-1,9.8633736E-1,4.7981948E-1,-3.6275798E-1,8.6524934E-1,1.4401169E-1,8.518984E-1,8.7217057E-1,-1.7102069E-1,-2.4806384E-2,5.916937E-1,-4.872731E-1,1.5016448E-2,8.7751454E-1,3.9772427E-1,-2.016744E-1,3.1095517E-1,7.7976954E-1,-4.212584E-1,3.0447528E-1,9.0641594E-1,-6.6705537E-1,2.5443126E-2,-2.576207E-1,2.0993283E-1,3.538937E-1,1.1327374E0,7.9496676E-1,1.0518797E-1,8.476551E-1,-1.6258559E-1,9.65166E-1,-5.167148E-1,-6.269013E-1,2.935621E-1,5.179186E-1,-6.03069E-1,-5.874988E-1,9.3958E-1,6.258067E-2,-3.838328E-1,1.1351508E0,-1.4692572E-1,4.2007357E-1,9.923626E-1,-4.5532137E-1,2.8357667E-1,-1.2709741E-1,-3.3572264E-2,1.2185099E-1,-9.810296E-2,3.1335044E-1,-1.5245399E-1,2.3234723E-2,-9.1872215E-2,-1.06979474E-1,1.5050484E-1,1.3088366E-1,-1.7268714E-1,-1.5489477E-1,1.0431785E-1,2.379512E-1,-1.7065133E-1,3.4666276E-1,1.4990085E-1,2.8371254E-1,-1.6921434E-1,1.8761218E-1,-7.723473E-2,2.3694463E-2,-1.2627278E-1,3.7745595E-1,-8.849877E-2,1.5576069E-1,-4.150376E-2,2.82825E-1,1.1025965E-1,2.4854878E-1,-1.9297937E-1,-7.210818E-2,9.77741E-2,2.698112E-1,-8.793714E-2,-1.4717965E-1,1.9499642E-1,-2.0074202E-2,2.5961357E-1,2.7355206E-1,-6.522737E-2,-5.674801E-2,2.152142E-1,-8.3096005E-2,2.972356E-1,1.3939731E-1,5.234995E-3,2.2694808E-1,-1.679719E-1,2.0660572E-1,-2.0476057E-1,1.075701E-1,-9.598716E-2,1.4961918E-1,2.891035E-1,-1.9116044E-1,1.5302109E-2,-2.4475515E-2,-1.0495801E-1,3.0630866E-1,-6.840167E-2,-2.7597336E-2,2.2108519E-1,1.9629169E-1,3.59578E-1,2.5005418E-1,-3.919736E-3,7.9112485E-2,-1.2961371E-1,2.726383E-1,1.9171998E-1,2.2734149E-1,-1.1172258E-1,2.773045E-1,-1.1836562E-1,-1.9656259E-1,2.7275398E-1,3.256113E-2,-1.9424286E-1,1.542282E-1,-1.931287E-1,-1.8211316E-1,2.4030086E-1,-1.7938636E-1,1.8418221E-1,3.3308423E-1,-1.2036939E-1,3.0214421E-2,-1.9073649E-1,2.0660345E-1,-1.1958707E-1,3.5593057E-1,1.2467104E-1,2.4317712E-1,-5.2199787E-3,2.9119042E-1,-6.806623E-2,-1.5949717E-1,2.4943759E-1],"categories":[],"categories_nodes":[],"categories_segments":[],"categories_sizes":[],"default_left":[0,0,0,0,0,0,0,0,0,0,0,0,0,0,0,0,0,0,0,0,0,0,0,0,0,0,0,0,0,0,0,0,0,0,0,0,0,0,0,0,0,0,0,0,0,0,0,0,0,0,0,0,0,0,0,0,0,0,0,0,0,0,0,0,0,0,0,0,0,0,0,0,0,0,0,0,0,0,0,0,0,0,0,0,0,0,0,0,0,0,0,0,0,0,0,0,0,0,0,0,0,0,0,0,0,0,0,0,0,0,0,0,0,0,0,0,0,0,0,0,0,0,0,0,0,0,0,0,0,0,0,0,0,0,0,0,0,0,0,0,0,0,0,0,0,0,0,0,0,0,0,0,0,0,0,0,0,0,0,0,0,0,0,0,0,0,0,0,0,0,0,0,0,0,0,0,0,0,0,0,0,0,0,0,0,0,0,0,0,0,0,0,0,0,0,0,0,0,0,0,0,0,0,0,0,0,0,0,0,0,0,0,0,0,0,0,0,0,0],"id":5,"left_children":[1,3,5,7,9,11,13,15,17,19,21,23,25,27,29,31,33,35,37,39,41,43,45,47,49,51,53,55,57,59,61,63,65,67,69,71,73,75,77,79,-1,-1,-1,81,83,85,87,89,91,93,-1,95,97,99,101,103,105,107,109,111,113,115,117,119,121,123,125,127,129,131,133,135,-1,137,139,141,143,145,147,149,-1,151,153,155,157,159,161,163,165,167,169,171,173,175,-1,177,179,181,183,185,187,189,191,193,195,197,-1,199,201,203,205,207,209,211,-1,213,215,217,-1,-1,-1,-1,-1,-1,-1,-1,-1,-1,-1,-1,-1,-1,-1,-1,-1,-1,-1,-1,-1,-1,-1,-1,-1,-1,-1,-1,-1,-1,-1,-1,-1,-1,-1,-1,-1,-1,-1,-1,-1,-1,-1,-1,-1,-1,-1,-1,-1,-1,-1,-1,-1,-1,-1,-1,-1,-1,-1,-1,-1,-1,-1,-1,-1,-1,-1,-1,-1,-1,-1,-1,-1,-1,-1,-1,-1,-1,-1,-1,-1,-1,-1,-1,-1,-1,-1,-1,-1,-1,-1,-1,-1,-1,-1,-1,-1,-1,-1,-1,-1],"loss_changes":[2.6232925E3,1.6605371E3,9.776394E2,1.5585563E3,5.371652E2,1.00332324E3,4.067207E2,8.999907E2,7.196514E2,1.7461792E1,1.829172E2,1.9348804E2,6.938251E2,4.0836035E2,1.4771394E2,6.339658E2,2.5913663E2,1.7650269E1,5.5825073E2,1.3849243E1,1.7928135E0,8.638087E1,6.8717224E1,1.2712195E2,2.5463371E0,3.038269E2,9.216385E1,6.691968E1,2.4204272E2,5.8725555E1,4.1399216E1,3.8039917E2,3.4919385E2,1.8151859E2,8.5093605E1,1.3421814E1,1.1934692E1,4.2725113E1,1.5433301E2,1.1544434E1,0E0,0E0,0E0,7.015726E1,4.8676933E1,5.2577972E1,4.0209183E1,6.082837E1,1.1905084E2,7.9328156E-1,0E0,2.4346484E2,6.548494E1,7.236535E1,3.0197083E1,5.807837E1,1.0200851E1,2.4013428E2,2.3837326E1,6.350456E1,7.949383E0,2.089125E1,7.1109676E0,2.7076123E2,4.9014215E2,8.4711E0,2.1183011E2,3.7700768E1,1.7572394E2,3.169136E1,1.7556328E1,9.090515E0,0E0,9.618317E0,7.9195433E0,4.7166504E1,1.6328045E1,5.8213684E1,5.4840027E1,1.1037842E1,0E0,5.4683685E1,8.4177704E1,1.918084E1,2.4154202E1,3.4531036E1,1.3929695E2,2.4282095E1,2.971355E1,4.643744E1,1.5616959E1,1.0429027E2,1.6027313E1,7.249069E-1,0E0,1.6083899E2,5.0449942E2,6.3502964E1,8.730759E0,1.5234909E1,4.966509E1,1.40529175E1,7.334908E0,4.00896E1,7.7424083E0,1.4587164E0,0E0,1.8710974E2,1.1684059E1,1.3669548E1,3.9553976E0,4.8901165E1,1.7242916E1,3.5685997E0,0E0,1.8111494E1,9.391388E0,5.2561903E0,0E0,0E0,0E0,0E0,0E0,0E0,0E0,0E0,0E0,0E0,0E0,0E0,0E0,0E0,0E0,0E0,0E0,0E0,0E0,0E0,0E0,0E0,0E0,0E0,0E0,0E0,0E0,0E0,0E0,0E0,0E0,0E0,0E0,0E0,0E0,0E0,0E0,0E0,0E0,0E0,0E0,0E0,0E0,0E0,0E0,0E0,0E0,0E0,0E0,0E0,0E0,0E0,0E0,0E0,0E0,0E0,0E0,0E0,0E0,0E0,0E0,0E0,0E0,0E0,0E0,0E0,0E0,0E0,0E0,0E0,0E0,0E0,0E0,0E0,0E0,0E0,0E0,0E0,0E0,0E0,0E0,0E0,0E0,0E0,0E0,0E0,0E0,0E0,0E0,0E0,0E0,0E0,0E0,0E0,0E0,0E0,0E0,0E0,0E0,0E0,0E0],"parents":[2147483647,0,0,1,1,2,2,3,3,4,4,5,5,6,6,7,7,8,8,9,9,10,10,11,11,12,12,13,13,14,14,15,15,16,16,17,17,18,18,19,19,20,20,21,21,22,22,23,23,24,24,25,25,26,26,27,27,28,28,29,29,30,30,31,31,32,32,33,33,34,34,35,35,36,36,37,37,38,38,39,39,43,43,44,44,45,45,46,46,47,47,48,48,49,49,51,51,52,52,53,53,54,54,55,55,56,56,57,57,58,58,59,59,60,60,61,61,62,62,63,63,64,64,65,65,66,66,67,67,68,68,69,69,70,70,71,71,73,73,74,74,75,75,76,76,77,77,78,78,79,79,81,81,82,82,83,83,84,84,85,85,86,86,87,87,88,88,89,89,90,90,91,91,92,92,93,93,95,95,96,96,97,97,98,98,99,99,100,100,101,101,102,102,103,103,104,104,105,105,107,107,108,108,109,109,110,110,111,111,112,112,113,113,115,115,116,116,117,117],"right_children":[2,4,6,8,10,12,14,16,18,20,22,24,26,28,30,32,34,36,38,40,42,44,46,48,50,52,54,56,58,60,62,64,66,68,70,72,74,76,78,80,-1,-1,-1,82,84,86,88,90,92,94,-1,96,98,100,102,104,106,108,110,112,114,116,118,120,122,124,126,128,130,132,134,136,-1,138,140,142,144,146,148,150,-1,152,154,156,158,160,162,164,166,168,170,172,174,176,-1,178,180,182,184,186,188,190,192,194,196,198,-1,200,202,204,206,208,210,212,-1,214,216,218,-1,-1,-1,-1,-1,-1,-1,-1,-1,-1,-1,-1,-1,-1,-1,-1,-1,-1,-1,-1,-1,-1,-1,-1,-1,-1,-1,-1,-1,-1,-1,-1,-1,-1,-1,-1,-1,-1,-1,-1,-1,-1,-1,-1,-1,-1,-1,-1,-1,-1,-1,-1,-1,-1,-1,-1,-1,-1,-1,-1,-1,-1,-1,-1,-1,-1,-1,-1,-1,-1,-1,-1,-1,-1,-1,-1,-1,-1,-1,-1,-1,-1,-1,-1,-1,-1,-1,-1,-1,-1,-1,-1,-1,-1,-1,-1,-1,-1,-1,-1,-1],"split_conditions":[7.490745E-1,3.8340304E-3,5.452034E-1,4.4413493E-3,9.960422E-1,-1.2332556E0,1.6971612E0,-2.267859E-1,9.963586E-1,2.0775917E0,-5.023455E-1,9.947686E-1,3.8340304E-3,1.4521909E-1,4.4413493E-3,3.7077938E-3,-1.258421E-1,-3.9257056E-1,8.592429E-1,5.4273164E-1,-1.4332873E0,1.5128767E-1,-4.3602097E-1,-1.5793914E0,3.4463652E-3,1.8785754E0,-1.6602568E-1,8.424597E-1,9.910046E-1,3.9578066E-3,1.5358309E0,6.222077E-1,9.963417E-1,-7.867535E-1,2.5607445E-3,4.6592963E-1,1.170023E0,3.1024814E-3,3.335193E-3,1.2345247E-3,-2.0222247E-1,1.07571356E-1,-1.859008E-1,4.169246E-3,8.592429E-1,-9.5294136E-1,-5.101886E-1,9.8165506E-1,6.222077E-1,4.0439037E-3,1.4133544E-1,2.9728303E-3,1.4432371E-3,9.960422E-1,4.9742347E-1,9.750508E-1,1.9378915E0,9.87728E-1,4.5530023E-3,2.257942E-1,3.7077938E-3,3.335193E-3,7.3375106E-3,3.3804688E-3,-8.8711977E-1,9.526461E-1,4.3583912E-1,2.9728303E-3,9.87728E-1,4.5771403E-3,8.5802066E-1,-2.6387122E-1,-1.7092349E-1,4.3369085E-3,-2.3618054E-1,-1.3078811E0,9.634897E-1,-4.6822503E-1,-1.2705733E-1,9.6882313E-1,-1.7102069E-1,-5.101886E-1,-8.8711977E-1,4.7464683E-3,1.7241995E0,-7.9476506E-1,8.592429E-1,1.9478798E-1,-2.181896E-1,9.808771E-1,4.022218E-1,9.910909E-1,-2.3698217E-1,7.363932E-1,2.5443126E-2,1.4521909E-1,9.9559236E-1,-8.215429E-2,3.3804688E-3,-2.4485831E-1,1.5128767E-1,1.4521909E-1,6.068284E-1,9.9333245E-1,2.5993516E-3,-5.023455E-1,2.935621E-1,9.973684E-1,2.156872E-3,1.4582334E-1,-2.678693E-1,9.947686E-1,8.4355927E-1,9.8982847E-1,-1.4692572E-1,-1.7859076E-1,1.2151029E0,1.0176072E-3,2.8357667E-1,-1.2709741E-1,-3.3572264E-2,1.2185099E-1,-9.810296E-2,3.1335044E-1,-1.5245399E-1,2.3234723E-2,-9.1872215E-2,-1.06979474E-1,1.5050484E-1,1.3088366E-1,-1.7268714E-1,-1.5489477E-1,1.0431785E-1,2.379512E-1,-1.7065133E-1,3.4666276E-1,1.4990085E-1,2.8371254E-1,-1.6921434E-1,1.8761218E-1,-7.723473E-2,2.3694463E-2,-1.2627278E-1,3.7745595E-1,-8.849877E-2,1.5576069E-1,-4.150376E-2,2.82825E-1,1.1025965E-1,2.4854878E-1,-1.9297937E-1,-7.210818E-2,9.77741E-2,2.698112E-1,-8.793714E-2,-1.4717965E-1,1.9499642E-1,-2.0074202E-2,2.5961357E-1,2.7355206E-1,-6.522737E-2,-5.674801E-2,2.152142E-1,-8.3096005E-2,2.972356E-1,1.3939731E-1,5.234995E-3,2.2694808E-1,-1.679719E-1,2.0660572E-1,-2.0476057E-1,1.075701E-1,-9.598716E-2,1.4961918E-1,2.891035E-1,-1.9116044E-1,1.5302109E-2,-2.4475515E-2,-1.0495801E-1,3.0630866E-1,-6.840167E-2,-2.7597336E-2,2.2108519E-1,1.9629169E-1,3.59578E-1,2.5005418E-1,-3.919736E-3,7.9112485E-2,-1.2961371E-1,2.726383E-1,1.9171998E-1,2.2734149E-1,-1.1172258E-1,2.773045E-1,-1.1836562E-1,-1.9656259E-1,2.7275398E-1,3.256113E-2,-1.9424286E-1,1.542282E-1,-1.931287E-1,-1.8211316E-1,2.4030086E-1,-1.7938636E-1,1.8418221E-1,3.3308423E-1,-1.2036939E-1,3.0214421E-2,-1.9073649E-1,2.0660345E-1,-1.1958707E-1,3.5593057E-1,1.2467104E-1,2.4317712E-1,-5.2199787E-3,2.9119042E-1,-6.806623E-2,-1.5949717E-1,2.4943759E-1],"split_indices":[11,20,0,22,20,0,11,12,22,5,5,18,20,1,22,431,2,2,0,388,0,0,1,0,289,9,2,18,24,214,0,2,431,9,23,192,5,111,430,146,0,0,0,428,0,0,0,15,2,54,0,19,87,20,0,26,3,18,291,5,431,430,287,29,0,18,1,19,18,24,2,3,0,82,3,1,111,11,11,230,0,0,0,37,9,1,0,354,2,30,1,19,9,174,0,1,19,2,29,3,0,1,20,34,250,5,0,34,174,327,3,18,0,214,0,9,3,169,0,0,0,0,0,0,0,0,0,0,0,0,0,0,0,0,0,0,0,0,0,0,0,0,0,0,0,0,0,0,0,0,0,0,0,0,0,0,0,0,0,0,0,0,0,0,0,0,0,0,0,0,0,0,0,0,0,0,0,0,0,0,0,0,0,0,0,0,0,0,0,0,0,0,0,0,0,0,0,0,0,0,0,0,0,0,0,0,0,0,0,0,0,0,0,0,0,0,0,0,0],"split_type":[0,0,0,0,0,0,0,0,0,0,0,0,0,0,0,0,0,0,0,0,0,0,0,0,0,0,0,0,0,0,0,0,0,0,0,0,0,0,0,0,0,0,0,0,0,0,0,0,0,0,0,0,0,0,0,0,0,0,0,0,0,0,0,0,0,0,0,0,0,0,0,0,0,0,0,0,0,0,0,0,0,0,0,0,0,0,0,0,0,0,0,0,0,0,0,0,0,0,0,0,0,0,0,0,0,0,0,0,0,0,0,0,0,0,0,0,0,0,0,0,0,0,0,0,0,0,0,0,0,0,0,0,0,0,0,0,0,0,0,0,0,0,0,0,0,0,0,0,0,0,0,0,0,0,0,0,0,0,0,0,0,0,0,0,0,0,0,0,0,0,0,0,0,0,0,0,0,0,0,0,0,0,0,0,0,0,0,0,0,0,0,0,0,0,0,0,0,0,0,0,0,0,0,0,0,0,0,0,0,0,0,0,0,0,0,0,0,0,0],"sum_hessian":[7.558578E4,4.836768E4,2.7218104E4,4.316962E4,5.1980576E3,1.6029732E4,1.118837E4,3.94186E4,3.751022E3,1.7075399E3,3.4905178E3,4.393635E3,1.1636098E4,8.877869E3,2.3105012E3,3.5425945E4,3.9926558E3,1.1276285E3,2.6233933E3,1.6983645E3,9.175408E0,1.7190597E3,1.771458E3,4.2517314E3,1.4190321E2,1.0129132E4,1.5069661E3,2.3837124E3,6.4941567E3,1.96532E3,3.4518124E2,2.9583379E4,5.842566E3,3.3004019E3,6.9225385E2,6.589577E2,4.6867087E2,1.3092473E3,1.3141461E3,1.6935029E3,4.861501E0,1.3742895E0,7.801119E0,9.010566E2,8.180031E2,9.999745E2,7.714836E2,1.697229E3,2.5545024E3,1.4066118E2,1.2420268E0,9.639001E3,4.901301E2,7.230288E2,7.839373E2,2.349266E3,3.4446335E1,6.246314E3,2.4784286E2,1.9142362E3,5.108367E1,3.1001807E2,3.5163177E1,2.6071238E4,3.5121404E3,2.7512277E2,5.5674434E3,4.6023697E2,2.8401648E3,6.199457E2,7.230817E1,6.5535974E2,3.5979605E0,4.1298026E2,5.5690594E1,1.2811968E3,2.80506E1,4.9335788E2,8.2078815E2,1.688832E3,4.6708984E0,6.432156E2,2.5784103E2,5.070175E2,3.1098563E2,3.560234E2,6.439511E2,2.0929851E2,5.6218506E2,1.6545474E3,4.2681602E1,2.1676646E3,3.8683804E2,1.3948712E2,1.1740558E0,8.354784E3,1.2842169E3,3.2943362E2,1.6069647E2,2.1661559E2,5.064132E2,7.5344855E2,3.0488752E1,2.323095E3,2.6171268E1,3.1184027E1,3.26231E0,6.049788E3,1.9652592E2,2.380364E2,9.806452E0,1.5115089E3,4.027274E2,4.854716E1,2.5365129E0,9.34081E1,2.1660999E2,3.2371403E1,2.7917767E0,2.3280666E4,2.7905725E3,1.2847401E3,2.2274001E3,2.724967E2,2.6260784E0,3.5510405E3,2.0164027E3,4.0961685E2,5.06201E1,2.6782312E3,1.619337E2,5.800111E2,3.9934563E1,6.329275E1,9.01542E0,6.336939E2,2.1665855E1,4.097839E2,3.1963742E0,4.4959526E1,1.0731066E1,1.9960625E2,1.0815906E3,2.0010818E1,8.039782E0,2.0560347E2,2.8775443E2,6.241555E2,1.9663268E2,1.6849476E3,3.8844695E0,3.9703333E2,2.4618224E2,1.8431734E2,7.35237E1,4.9430145E2,1.2716058E1,2.8476968E2,2.6215939E1,3.3027383E2,2.5749586E1,2.4259875E2,4.0135233E2,1.957676E2,1.3530915E1,3.472833E2,2.1490175E2,1.6309056E3,2.3641726E1,8.5508995E0,3.4130703E1,1.9423201E3,2.2534445E2,8.996319E1,2.9687485E2,1.3824904E2,1.2380852E0,3.3096558E3,5.0451284E3,4.38058E2,8.4615894E2,1.6025655E2,1.6917708E2,3.9069927E1,1.2162655E2,1.9560757E2,2.1008009E1,3.872528E2,1.191604E2,4.5110895E2,3.0233957E2,5.421739E0,2.5067013E1,2.3028137E3,2.0281168E1,2.3858852E1,2.3124154E0,2.183898E0,2.9000128E1,5.923117E3,1.2667105E2,1.9193564E2,4.5902796E0,2.3017786E2,7.8585567E0,8.486116E0,1.320335E0,1.4270684E3,8.444048E1,1.26105385E1,3.9011685E2,4.074329E1,7.8038697E0,4.629689E1,4.7111206E1,2.1093942E2,5.670563E0,3.0506235E1,1.8651664E0],"tree_param":{"num_deleted":"0","num_feature":"434","num_nodes":"219","size_leaf_vector":"1"}},{"base_weights":[-5.771578E-3,8.0367196E-1,-4.9667072E-1,9.316347E-1,4.0430045E-1,-1.3223086E-1,-5.9162116E-1,9.6595424E-1,7.625875E-1,5.2139586E-1,1.381345E-1,-8.023124E-3,-3.0119658E-1,-4.7044343E-1,-6.3069046E-1,9.275037E-1,1.0299528E0,8.290032E-1,3.1851417E-1,3.9669687E-1,7.5027597E-1,9.486237E-2,8.0292475E-1,-3.2137874E-1,8.4869474E-2,-1.6356064E-1,-3.8533872E-1,-3.207545E-1,-5.546627E-1,-6.366784E-1,-2.1763267E-1,9.538448E-1,8.3086115E-1,1.0539429E0,9.3607503E-1,6.7901254E-1,9.330541E-1,2.4640264E-1,1.0261239E0,5.302204E-1,2.5796267E-1,3.4389067E-1,8.0730873E-1,2.1769075E-1,-1.3519952E-1,1.8124446E-1,8.711257E-1,-4.2160866E-1,-1.6471852E-1,3.003965E-3,4.4770807E-1,-1.7966743E-1,8.902608E-1,-5.6219214E-1,-3.433876E-1,-3.4841126E-1,4.4107553E-1,-5.641883E-1,-2.1056408E-1,7.547717E-2,-6.383808E-1,1.00015804E-1,-5.8028924E-1,2.53966E-1,9.7224444E-1,8.9556444E-1,4.725479E-1,1.0025812E0,1.1199572E0,-1.2069535E-1,9.377338E-1,7.05808E-1,-1.6881402E-1,6.936938E-1,9.70194E-1,3.0785573E-1,-4.9497366E-1,1.084971E0,4.9987203E-3,5.542614E-1,-4.129981E-1,-1.1075242E-1,3.2763004E-1,4.872693E-1,-7.028395E-3,9.43702E-1,7.2961676E-1,3.6570358E-1,4.5473486E-2,-2.1021444E-1,4.1221458E-1,-3.3813062E-1,3.6758345E-1,1.0420521E0,6.1627996E-1,-3.6831173E-1,-1.9593246E-1,-5.550797E-2,-2.0631568E-1,-5.9426457E-2,4.9588525E-1,6.129853E-1,2.3254554E-1,-2.0070855E-1,5.5569583E-1,1.0947934E0,-1.5014704E-1,-5.6604314E-1,1.424144E-1,-3.168872E-1,-6.521594E-1,-4.069949E-1,-7.748469E-2,5.329724E-1,-1.4413768E-1,-5.750306E-1,-3.2639402E-1,-4.2650193E-1,3.6724612E-1,7.1083134E-1,-5.9286666E-1,-5.623424E-1,-6.511172E-1,5.399423E-1,-1.4819571E-1,-6.0130954E-1,4.0198466E-1,2.76036E-1,2.1230392E-2,2.587128E-1,9.591875E-2,1.205548E-1,2.876012E-1,2.957661E-1,2.6933897E-1,3.206577E-1,2.7211034E-1,2.662129E-1,9.082352E-2,1.4214367E-1,2.0770124E-1,-6.402854E-2,2.3427103E-1,2.1231304E-1,-2.011512E-1,2.75952E-1,-1.5341136E-1,7.210199E-2,2.1817935E-1,-4.2279832E-2,-1.6834193E-1,3.1422737E-1,8.2301125E-2,1.6126387E-2,1.6628753E-1,-1.3547827E-1,1.7125307E-1,4.3790873E-2,-8.251698E-2,7.76452E-2,1.952824E-1,1.5182884E-1,-1.6844633E-1,-1.1804098E-1,5.488948E-2,2.6944044E-1,-7.797513E-2,2.2983775E-1,1.5327257E-1,1.18061095E-1,-3.6321085E-2,-6.839778E-2,3.2923367E-2,-3.8155764E-2,-1.79188E-1,-7.357479E-3,2.0762493E-1,-1.4566375E-1,7.548292E-3,-1.4677969E-1,1.6104351E-1,3.0178812E-1,-1.7295307E-3,7.070111E-2,2.5104597E-1,3.5718977E-2,-1.1425981E-1,-3.2937624E-2,1.8296333E-1,1.8868294E-2,-5.853366E-2,1.806873E-1,4.821255E-2,2.1377619E-1,1.205787E-1,2.0239253E-1,4.6267584E-2,-6.544072E-2,1.0054755E-1,2.4619664E-1,-3.2304462E-2,3.303885E-1,8.369679E-3,-1.2588125E-1,-1.6915606E-1,-9.487599E-2,2.4094397E-2,-1.8832742E-1,6.942663E-2,-1.2398695E-1,1.2507134E-2,6.693198E-2,-5.652528E-2,1.7712554E-2,1.8642245E-1,-1.9205406E-1,5.9493165E-2,-1.8463051E-1,-1.55233E-1,-1.03108816E-1,1.3389888E-1,-6.581529E-2,-1.6339546E-1,1.6295426E-1,-6.905073E-2,2.2204283E-1,-1.2649107E-1,-1.8436722E-1,-3.4732677E-4,2.2220248E-2,-1.6271426E-1,-1.8520969E-1,-1.3392338E-1,1.6814683E-1,-1.7153877E-1,2.454307E-2,-1.2127017E-1,-9.734189E-2,-1.862787E-1,-4.753024E-2,2.110121E-1],"categories":[],"categories_nodes":[],"categories_segments":[],"categories_sizes":[],"default_left":[0,0,0,0,0,0,0,0,0,0,0,0,0,0,0,0,0,0,0,0,0,0,0,0,0,0,0,0,0,0,0,0,0,0,0,0,0,0,0,0,0,0,0,0,0,0,0,0,0,0,0,0,0,0,0,0,0,0,0,0,0,0,0,0,0,0,0,0,0,0,0,0,0,0,0,0,0,0,0,0,0,0,0,0,0,0,0,0,0,0,0,0,0,0,0,0,0,0,0,0,0,0,0,0,0,0,0,0,0,0,0,0,0,0,0,0,0,0,0,0,0,0,0,0,0,0,0,0,0,0,0,0,0,0,0,0,0,0,0,0,0,0,0,0,0,0,0,0,0,0,0,0,0,0,0,0,0,0,0,0,0,0,0,0,0,0,0,0,0,0,0,0,0,0,0,0,0,0,0,0,0,0,0,0,0,0,0,0,0,0,0,0,0,0,0,0,0,0,0,0,0,0,0,0,0,0,0,0,0,0,0,0,0,0,0,0,0,0,0,0,0,0,0,0,0,0,0,0,0,0,0,0,0,0,0,0,0,0,0,0,0],"id":6,"left_children":[1,3,5,7,9,11,13,15,17,19,21,23,25,27,29,31,33,35,37,39,41,43,45,47,49,51,53,55,57,59,61,63,65,67,69,71,73,75,77,79,81,83,85,87,89,91,93,95,97,99,101,103,105,107,109,111,113,115,117,119,121,123,125,-1,127,129,131,133,135,-1,137,139,141,143,145,147,149,151,-1,153,155,157,159,161,163,165,167,169,171,173,175,177,179,181,183,185,-1,187,-1,189,191,193,195,197,199,201,-1,203,-1,205,207,209,211,213,215,217,219,221,223,225,227,229,231,233,235,237,239,-1,-1,-1,-1,-1,-1,-1,-1,-1,-1,-1,-1,-1,-1,-1,-1,-1,-1,-1,-1,-1,-1,-1,-1,-1,-1,-1,-1,-1,-1,-1,-1,-1,-1,-1,-1,-1,-1,-1,-1,-1,-1,-1,-1,-1,-1,-1,-1,-1,-1,-1,-1,-1,-1,-1,-1,-1,-1,-1,-1,-1,-1,-1,-1,-1,-1,-1,-1,-1,-1,-1,-1,-1,-1,-1,-1,-1,-1,-1,-1,-1,-1,-1,-1,-1,-1,-1,-1,-1,-1,-1,-1,-1,-1,-1,-1,-1,-1,-1,-1,-1,-1,-1,-1,-1,-1,-1,-1,-1,-1,-1,-1,-1,-1],"loss_changes":[2.9119633E4,1.4134688E3,1.5784717E3,1.2081445E2,2.0921667E2,1.9790286E2,1.7103418E2,4.1893555E1,1.0415674E2,1.3279321E2,5.898186E1,1.5825578E2,4.620453E1,1.1110181E2,6.754199E1,2.6921875E1,1.3711426E1,4.742285E1,2.3334148E1,5.581906E1,3.7813293E1,5.4529625E1,5.156044E0,1.945079E1,1.2456724E2,2.591721E1,1.8196564E1,6.716757E1,1.8392212E1,3.2746094E1,4.527554E1,8.34668E0,5.3818237E1,1.6473145E1,3.4190674E0,2.885431E1,1.546521E1,1.9324535E1,2.4992409E0,3.5111115E1,3.814044E1,1.0267618E1,1.4575317E1,3.20437E1,2.7678211E1,1.4456092E0,4.2660522E0,1.0608215E1,2.9860073E1,1.0534751E2,2.7311096E1,2.3250755E1,7.260872E0,2.225357E0,1.6207504E1,4.869055E1,6.0926266E0,1.3979248E1,1.9336704E1,2.8114641E1,2.5692383E1,2.3021685E1,4.028988E0,0E0,4.5942383E0,1.7815796E1,8.840607E0,5.2373047E0,2.6916504E0,0E0,2.6416016E-1,6.249695E0,2.4248197E0,1.9518433E1,6.5839844E0,9.443375E0,1.0215664E0,4.0183258E-1,0E0,2.3785614E1,2.8359213E0,1.1338114E1,2.408789E1,7.8239326E0,5.015186E0,4.117279E0,1.3628998E1,1.6904922E1,1.1810318E1,1.879172E1,1.1408687E1,2.7752706E-1,2.157977E0,1.5124741E0,4.4817524E0,1.0855492E1,0E0,1.742093E1,0E0,5.6235283E1,1.7586487E1,1.1199905E1,1.1138815E1,2.4286572E1,8.849341E0,1.4865437E0,0E0,1.4828033E0,0E0,1.3075378E1,1.817421E0,3.424817E1,2.0923758E1,5.6204395E0,3.1530168E0,1.0724976E1,7.331913E0,3.1331863E0,5.4986153E0,3.166809E0,1.0901995E0,2.7887085E1,6.948242E0,4.9502697E0,8.89317E0,2.345909E0,9.8950964E-1,0E0,0E0,0E0,0E0,0E0,0E0,0E0,0E0,0E0,0E0,0E0,0E0,0E0,0E0,0E0,0E0,0E0,0E0,0E0,0E0,0E0,0E0,0E0,0E0,0E0,0E0,0E0,0E0,0E0,0E0,0E0,0E0,0E0,0E0,0E0,0E0,0E0,0E0,0E0,0E0,0E0,0E0,0E0,0E0,0E0,0E0,0E0,0E0,0E0,0E0,0E0,0E0,0E0,0E0,0E0,0E0,0E0,0E0,0E0,0E0,0E0,0E0,0E0,0E0,0E0,0E0,0E0,0E0,0E0,0E0,0E0,0E0,0E0,0E0,0E0,0E0,0E0,0E0,0E0,0E0,0E0,0E0,0E0,0E0,0E0,0E0,0E0,0E0,0E0,0E0,0E0,0E0,0E0,0E0,0E0,0E0,0E0,0E0,0E0,0E0,0E0,0E0,0E0,0E0,0E0,0E0,0E0,0E0,0E0,0E0,0E0,0E0,0E0,0E0],"parents":[2147483647,0,0,1,1,2,2,3,3,4,4,5,5,6,6,7,7,8,8,9,9,10,10,11,11,12,12,13,13,14,14,15,15,16,16,17,17,18,18,19,19,20,20,21,21,22,22,23,23,24,24,25,25,26,26,27,27,28,28,29,29,30,30,31,31,32,32,33,33,34,34,35,35,36,36,37,37,38,38,39,39,40,40,41,41,42,42,43,43,44,44,45,45,46,46,47,47,48,48,49,49,50,50,51,51,52,52,53,53,54,54,55,55,56,56,57,57,58,58,59,59,60,60,61,61,62,62,64,64,65,65,66,66,67,67,68,68,70,70,71,71,72,72,73,73,74,74,75,75,76,76,77,77,79,79,80,80,81,81,82,82,83,83,84,84,85,85,86,86,87,87,88,88,89,89,90,90,91,91,92,92,93,93,94,94,95,95,97,97,99,99,100,100,101,101,102,102,103,103,104,104,105,105,107,107,109,109,110,110,111,111,112,112,113,113,114,114,115,115,116,116,117,117,118,118,119,119,120,120,121,121,122,122,123,123,124,124,125,125,126,126],"right_children":[2,4,6,8,10,12,14,16,18,20,22,24,26,28,30,32,34,36,38,40,42,44,46,48,50,52,54,56,58,60,62,64,66,68,70,72,74,76,78,80,82,84,86,88,90,92,94,96,98,100,102,104,106,108,110,112,114,116,118,120,122,124,126,-1,128,130,132,134,136,-1,138,140,142,144,146,148,150,152,-1,154,156,158,160,162,164,166,168,170,172,174,176,178,180,182,184,186,-1,188,-1,190,192,194,196,198,200,202,-1,204,-1,206,208,210,212,214,216,218,220,222,224,226,228,230,232,234,236,238,240,-1,-1,-1,-1,-1,-1,-1,-1,-1,-1,-1,-1,-1,-1,-1,-1,-1,-1,-1,-1,-1,-1,-1,-1,-1,-1,-1,-1,-1,-1,-1,-1,-1,-1,-1,-1,-1,-1,-1,-1,-1,-1,-1,-1,-1,-1,-1,-1,-1,-1,-1,-1,-1,-1,-1,-1,-1,-1,-1,-1,-1,-1,-1,-1,-1,-1,-1,-1,-1,-1,-1,-1,-1,-1,-1,-1,-1,-1,-1,-1,-1,-1,-1,-1,-1,-1,-1,-1,-1,-1,-1,-1,-1,-1,-1,-1,-1,-1,-1,-1,-1,-1,-1,-1,-1,-1,-1,-1,-1,-1,-1,-1,-1,-1],"split_conditions":[-5.012415E-2,-2.775814E-1,2.9377466E-1,-3.9798564E-1,2.510262E-1,-1.9230013E-3,7.0561534E-1,-4.9929056E-1,9.944057E-1,-1.5661025E-1,9.7808886E-1,-8.8711977E-1,7.103694E-2,-4.063245E-1,4.11041E0,-5.83078E-1,3.477563E-3,-4.560378E-1,9.476989E-1,-1.613948E-1,-1.2615602E0,1.098019E0,-9.5294136E-1,-1.2332556E0,9.954773E-1,8.586607E-1,-1.2332556E0,2.7988663E0,9.897146E-1,-2.4885716E0,3.0213945E0,-1.0777098E0,1.126233E0,-2.6044348E-1,7.6709545E-1,2.5607445E-3,-1.2332556E0,3.88698E0,8.592429E-1,2.5607445E-3,-1.2332556E0,-1.1992606E-1,-1.9317214E-1,-1.5061708E-1,1.1427543E0,1.0193686E0,5.452034E-1,-1.562943E0,-1.1720454E0,6.1794806E-1,1.4356959E-1,8.160849E-1,5.719972E-3,2.840657E-2,5.719972E-3,9.914539E-1,3.2959236E-3,1.3526578E0,-2.9937813E-2,-5.066263E-1,-8.1161696E-1,-1.6965552E-1,8.5239834E-1,2.53966E-1,1.0154048E-3,2.5607445E-3,3.7337483E-3,2.0909157E-1,3.1129734E-3,-1.2069535E-1,6.436138E-3,-1.025028E0,9.345182E-1,-1.562943E0,5.038876E-4,1.1714884E0,2.0909157E-1,6.3827914E-1,4.9987203E-3,-1.5793914E0,9.398119E-1,-5.023455E-1,9.954773E-1,-1.562943E0,1.9931018E-2,6.4906967E-3,-1.3216344E-1,5.719972E-3,-1.2332556E0,3.88698E0,-4.411283E-1,3.335193E-3,-6.839751E-1,2.1140628E0,1.4471197E-1,-8.1161696E-1,-1.9593246E-1,9.3936473E-1,-2.0631568E-1,1.3310586E-1,1.8505739E-1,5.452034E-1,-1.4394181E0,8.728843E-1,7.880459E-1,3.8199786E-3,-1.5014704E-1,-1.8225677E0,1.424144E-1,9.897146E-1,1.11931525E-2,9.476845E-1,-4.9266496E-1,3.4579072E0,-3.742749E-1,-8.8711977E-1,4.5766544E0,4.3009594E-1,1.0586495E0,1.791763E-2,-3.7828475E-1,-1.4001584E0,9.954705E-1,2.4104723E-1,4.9657607E-1,3.8627121E0,-5.084526E-1,2.76036E-1,2.1230392E-2,2.587128E-1,9.591875E-2,1.205548E-1,2.876012E-1,2.957661E-1,2.6933897E-1,3.206577E-1,2.7211034E-1,2.662129E-1,9.082352E-2,1.4214367E-1,2.0770124E-1,-6.402854E-2,2.3427103E-1,2.1231304E-1,-2.011512E-1,2.75952E-1,-1.5341136E-1,7.210199E-2,2.1817935E-1,-4.2279832E-2,-1.6834193E-1,3.1422737E-1,8.2301125E-2,1.6126387E-2,1.6628753E-1,-1.3547827E-1,1.7125307E-1,4.3790873E-2,-8.251698E-2,7.76452E-2,1.952824E-1,1.5182884E-1,-1.6844633E-1,-1.1804098E-1,5.488948E-2,2.6944044E-1,-7.797513E-2,2.2983775E-1,1.5327257E-1,1.18061095E-1,-3.6321085E-2,-6.839778E-2,3.2923367E-2,-3.8155764E-2,-1.79188E-1,-7.357479E-3,2.0762493E-1,-1.4566375E-1,7.548292E-3,-1.4677969E-1,1.6104351E-1,3.0178812E-1,-1.7295307E-3,7.070111E-2,2.5104597E-1,3.5718977E-2,-1.1425981E-1,-3.2937624E-2,1.8296333E-1,1.8868294E-2,-5.853366E-2,1.806873E-1,4.821255E-2,2.1377619E-1,1.205787E-1,2.0239253E-1,4.6267584E-2,-6.544072E-2,1.0054755E-1,2.4619664E-1,-3.2304462E-2,3.303885E-1,8.369679E-3,-1.2588125E-1,-1.6915606E-1,-9.487599E-2,2.4094397E-2,-1.8832742E-1,6.942663E-2,-1.2398695E-1,1.2507134E-2,6.693198E-2,-5.652528E-2,1.7712554E-2,1.8642245E-1,-1.9205406E-1,5.9493165E-2,-1.8463051E-1,-1.55233E-1,-1.03108816E-1,1.3389888E-1,-6.581529E-2,-1.6339546E-1,1.6295426E-1,-6.905073E-2,2.2204283E-1,-1.2649107E-1,-1.8436722E-1,-3.4732677E-4,2.2220248E-2,-1.6271426E-1,-1.8520969E-1,-1.3392338E-1,1.6814683E-1,-1.7153877E-1,2.454307E-2,-1.2127017E-1,-9.734189E-2,-1.862787E-1,-4.753024E-2,2.110121E-1],"split_indices":[10,10,10,10,6,6,10,5,6,5,25,0,10,6,5,10,18,5,25,10,0,6,0,0,27,304,0,5,14,9,10,10,6,13,18,23,0,6,0,23,0,10,10,10,9,6,0,0,0,5,10,14,16,140,16,27,33,5,5,6,6,13,18,0,333,23,25,0,14,0,340,6,380,0,374,9,0,5,0,0,380,5,27,0,5,205,6,16,0,6,5,430,9,9,9,6,0,18,0,10,10,0,9,25,1,17,0,0,0,14,303,18,9,5,9,0,5,10,1,226,13,13,14,6,9,10,13,0,0,0,0,0,0,0,0,0,0,0,0,0,0,0,0,0,0,0,0,0,0,0,0,0,0,0,0,0,0,0,0,0,0,0,0,0,0,0,0,0,0,0,0,0,0,0,0,0,0,0,0,0,0,0,0,0,0,0,0,0,0,0,0,0,0,0,0,0,0,0,0,0,0,0,0,0,0,0,0,0,0,0,0,0,0,0,0,0,0,0,0,0,0,0,0,0,0,0,0,0,0,0,0,0,0,0,0,0,0,0,0,0,0],"split_type":[0,0,0,0,0,0,0,0,0,0,0,0,0,0,0,0,0,0,0,0,0,0,0,0,0,0,0,0,0,0,0,0,0,0,0,0,0,0,0,0,0,0,0,0,0,0,0,0,0,0,0,0,0,0,0,0,0,0,0,0,0,0,0,0,0,0,0,0,0,0,0,0,0,0,0,0,0,0,0,0,0,0,0,0,0,0,0,0,0,0,0,0,0,0,0,0,0,0,0,0,0,0,0,0,0,0,0,0,0,0,0,0,0,0,0,0,0,0,0,0,0,0,0,0,0,0,0,0,0,0,0,0,0,0,0,0,0,0,0,0,0,0,0,0,0,0,0,0,0,0,0,0,0,0,0,0,0,0,0,0,0,0,0,0,0,0,0,0,0,0,0,0,0,0,0,0,0,0,0,0,0,0,0,0,0,0,0,0,0,0,0,0,0,0,0,0,0,0,0,0,0,0,0,0,0,0,0,0,0,0,0,0,0,0,0,0,0,0,0,0,0,0,0,0,0,0,0,0,0,0,0,0,0,0,0,0,0,0,0,0,0],"sum_hessian":[7.328164E4,2.7664691E4,4.5616945E4,2.0950578E4,6.7141143E3,9.428966E3,3.618798E4,1.7411107E4,3.539471E3,4.6621274E3,2.0519866E3,5.4348335E3,3.9941326E3,8.826052E3,2.7361928E4,1.0886151E4,6.5249556E3,3.0782244E3,4.6124667E2,3.0196746E3,1.6424531E3,1.9276555E3,1.24331085E2,1.242165E3,4.1926685E3,1.5164828E3,2.47765E3,3.1795745E3,5.646477E3,2.6970404E4,3.9152216E2,8.547545E3,2.3386064E3,5.1887544E3,1.3362012E3,1.2638682E3,1.8143562E3,4.1981238E2,4.1434284E1,1.5372954E3,1.482379E3,2.0300146E2,1.4394515E3,1.2567432E3,6.709123E2,1.2652824E1,1.1167826E2,7.5648254E2,4.8568256E2,3.4216636E3,7.7100507E2,1.4944705E3,2.2012232E1,4.7265918E2,2.0049907E3,3.0687134E3,1.10861046E2,5.4937554E3,1.527221E2,6.421651E1,2.690619E4,2.0909845E2,1.824237E2,2.0544275E3,6.493117E3,1.9796304E3,3.5897617E2,2.9273467E3,2.2614077E3,1.3150604E0,1.3348861E3,1.2253098E3,3.8558243E1,2.4635016E2,1.568006E3,3.8821756E2,3.1594824E1,3.9078217E1,2.3560705E0,1.4994885E3,3.7806927E1,2.3548465E2,1.2468944E3,1.4384192E2,5.9159542E1,5.183348E2,9.211168E2,6.752625E2,5.8148065E2,5.9059595E2,8.031636E1,3.1258025E0,9.527022E0,6.499609E1,4.6682167E1,6.3338904E2,1.230935E2,4.0764438E2,7.8038185E1,3.0377666E3,3.8389688E2,4.35006E2,3.3599902E2,1.4536052E3,4.0865307E1,1.9440008E1,2.5722232E0,4.714214E2,1.2378116E0,1.8483794E3,1.566113E2,2.5227136E3,5.4599994E2,9.589222E1,1.4968825E1,5.252832E3,2.4092291E2,1.1136494E2,4.135717E1,3.288815E1,3.1328354E1,3.8666619E3,2.3039527E4,7.499791E1,1.3410054E2,1.7898141E2,3.4422941E0,6.487244E3,5.8730326E0,1.9223846E3,5.7245693E1,3.316086E2,2.7367542E1,1.6593412E3,1.2680054E3,2.118544E3,1.4286386E2,1.3328894E3,1.996757E0,1.4200958E2,1.0833003E3,3.7203373E1,1.3548701E0,2.3754948E2,8.800662E0,1.5657144E3,2.2916145E0,3.4912787E2,3.9089687E1,7.556116E0,2.4038708E1,3.761048E1,1.4677337E0,9.0572E1,1.4089165E3,3.6047707E1,1.7592211E0,9.5324295E1,1.4016035E2,1.0862761E3,1.6061816E2,1.3821782E2,5.62411E0,1.9106136E1,4.0053406E1,5.159752E2,2.359599E0,6.438212E2,2.7729556E2,6.127814E2,6.2481117E1,1.1443617E2,4.6704446E2,5.0176978E2,8.8826164E1,3.4267757E1,4.6048603E1,1.8355823E0,1.2902204E0,1.4644852E0,8.062537E0,6.3658875E1,1.3372151E0,2.0543663E1,2.6138506E1,4.1113728E1,5.922753E2,3.7595377E2,3.1690619E1,1.6359144E3,1.4018522E3,2.6727692E2,1.16619965E2,2.471278E2,1.878782E2,4.122984E1,2.947692E2,1.3796948E3,7.3910355E1,2.7669327E1,1.3195979E1,1.815629E1,1.2837169E0,9.656909E1,3.748523E2,1.7711589E3,7.722052E1,1.5484984E2,1.7614673E0,2.365097E3,1.5761649E2,1.5251233E2,3.9348758E2,2.0336567E1,7.555565E1,5.609033E0,9.359793E0,1.4043632E3,3.8484692E3,2.3075327E2,1.0169657E1,4.9503613E1,6.186132E1,3.0924618E1,1.0432552E1,3.1268312E1,1.619837E0,2.848376E1,2.8445933E0,6.654237E1,3.8001194E3,2.28127E4,2.2682843E2,7.215263E1,2.8452747E0,7.324042E1,6.086013E1,3.2861835E1,1.4611958E2,1.4824106E0,1.9598836E0],"tree_param":{"num_deleted":"0","num_feature":"434","num_nodes":"241","size_leaf_vector":"1"}},{"base_weights":[4.540707E-3,-5.415442E-1,1.5932003E-1,-6.135346E-1,-3.0964386E-1,5.420718E-1,-3.9285567E-1,-6.3441175E-1,-4.7303045E-1,-4.0643057E-1,1.4446221E-1,1.2883717E-1,6.25948E-1,-1.5319036E-1,-5.287718E-1,-6.553924E-1,-5.6092817E-1,-6.1804634E-1,-1.2901053E-1,-2.363086E-1,-5.2050227E-1,3.695871E-1,-9.1034345E-2,5.1213033E-2,7.408968E-1,3.0569947E-1,7.5839007E-1,-4.7466666E-1,-5.0732568E-2,-4.160943E-1,-5.8899814E-1,-6.111345E-1,-6.736958E-1,-5.8659333E-1,8.0987744E-2,-6.548325E-1,-4.7738993E-1,2.5743687E-1,-2.924219E-1,-2.880081E-1,5.0469583E-1,-5.732567E-1,-3.96373E-1,2.812425E-1,8.159079E-1,5.6251697E-2,-4.0105546E-1,-1.3073869E-1,3.523E-1,3.6263034E-1,8.897923E-1,-2.2493069E-1,4.2124784E-1,8.169283E-1,4.758982E-1,-5.162443E-1,-1.2033188E-1,1.1822651E-2,-6.946953E-1,-2.9737294E-1,-5.323245E-1,-5.315577E-1,-6.669982E-1,-6.323419E-1,-4.7866055E-1,-6.524688E-1,-7.024535E-1,-4.849578E-1,-6.523176E-1,2.2551893E-1,-4.2794898E-1,-1.8607251E-1,-2.9960102E-1,-5.405481E-1,-1.561271E-2,3.8581246E-1,-2.2663832E-1,-1.5373768E-1,-4.835759E-1,-3.3072662E-1,3.4431067E-1,4.3354166E-1,4.190358E-1,-4.041016E-1,-5.999693E-1,-4.0646398E-1,2.8520298E-1,3.1949815E-1,-5.5994207E-1,-1.6183901E-1,9.4243747E-1,6.0906047E-1,-3.831698E-2,-5.2033365E-1,-1.9367838E-2,2.2202188E-1,-1.8951248E-1,2.8773108E-1,9.7316194E-1,7.006276E-1,1.5807817E-2,9.669572E-1,3.8083068E-1,-1.290886E-1,-5.704794E-1,4.8934293E-1,-1.19784005E-1,5.845483E-1,8.8205546E-1,5.834397E-1,-2.6431856E-1,-5.755155E-1,-3.0529714E-1,2.9459432E-1,-3.7907785E-1,-1.1208325E-1,4.052071E-1,-1.1568781E-1,-7.263383E-1,2.9498257E-2,-3.5655248E-1,-4.2381713E-1,-6.4208776E-1,-6.811428E-1,-4.7589847E-1,-6.683652E-1,2.5594464E-1,-1.796341E-1,-9.622114E-2,-1.5491284E-1,-8.700735E-2,-1.8532814E-1,5.3337406E-2,-1.9948553E-1,8.699825E-3,1.3024337E-2,-1.4246829E-1,-1.9064826E-1,-1.4739671E-1,2.897488E-2,2.6390427E-1,-1.4480789E-1,1.1249802E-1,-1.3578777E-1,4.5492746E-2,-1.570068E-1,1.6319333E-1,1.8215014E-1,-4.0594347E-2,1.3367592E-1,-7.794268E-2,-1.431586E-1,5.142483E-2,-5.126512E-2,3.298817E-1,-1.6206804E-1,1.9289319E-3,